digraph Tree {
node [shape=box, style="filled, rounded", color="black", fontname=helvetica] ;
edge [fontname=helvetica] ;
0 [label="X[4] <= 11.5\ngini = 0.41\nsamples = 8908\nvalue = [16, 3, 10, 5, 65, 1105, 57, 35, 1, 86, 6, 14\n3, 0, 8, 11, 49, 14, 38, 10715, 1700, 320]", fillcolor="#ec71a5"] ;
1 [label="X[2] <= 560.5\ngini = 0.07\nsamples = 3990\nvalue = [16, 0, 0, 0, 0, 5, 0, 0, 1, 11, 6, 0, 3, 0\n0, 0, 0, 0, 0, 6120, 67, 131]", fillcolor="#e64186"] ;
0 -> 1 [labeldistance=2.5, labelangle=45, headlabel="True"] ;
2 [label="X[1] <= 55.0\ngini = 0.07\nsamples = 3977\nvalue = [0, 0, 0, 0, 0, 5, 0, 0, 1, 11, 3, 0, 3, 0\n0, 0, 0, 0, 0, 6120, 67, 131]", fillcolor="#e64085"] ;
1 -> 2 ;
3 [label="X[4] <= 3.5\ngini = 0.27\nsamples = 657\nvalue = [0, 0, 0, 0, 0, 1, 0, 0, 0, 8, 3, 0, 3, 0\n0, 0, 0, 0, 0, 924, 52, 97]", fillcolor="#e95a96"] ;
2 -> 3 ;
4 [label="X[1] <= 30.5\ngini = 0.02\nsamples = 273\nvalue = [0, 0, 0, 0, 0, 0, 0, 0, 0, 0, 3, 0, 0, 0\n0, 0, 0, 0, 0, 463, 1, 0]", fillcolor="#e53b82"] ;
3 -> 4 ;
5 [label="X[3] <= 6.5\ngini = 0.01\nsamples = 210\nvalue = [0, 0, 0, 0, 0, 0, 0, 0, 0, 0, 0, 0, 0, 0\n0, 0, 0, 0, 0, 374, 1, 0]", fillcolor="#e53a81"] ;
4 -> 5 ;
6 [label="gini = 0.0\nsamples = 29\nvalue = [0, 0, 0, 0, 0, 0, 0, 0, 0, 0, 0, 0, 0, 0\n0, 0, 0, 0, 0, 56, 0, 0]", fillcolor="#e53981"] ;
5 -> 6 ;
7 [label="X[4] <= 1.5\ngini = 0.01\nsamples = 181\nvalue = [0, 0, 0, 0, 0, 0, 0, 0, 0, 0, 0, 0, 0, 0\n0, 0, 0, 0, 0, 318, 1, 0]", fillcolor="#e53a81"] ;
5 -> 7 ;
8 [label="gini = 0.0\nsamples = 158\nvalue = [0, 0, 0, 0, 0, 0, 0, 0, 0, 0, 0, 0, 0, 0\n0, 0, 0, 0, 0, 277, 0, 0]", fillcolor="#e53981"] ;
7 -> 8 ;
9 [label="X[1] <= 18.0\ngini = 0.05\nsamples = 23\nvalue = [0, 0, 0, 0, 0, 0, 0, 0, 0, 0, 0, 0, 0, 0\n0, 0, 0, 0, 0, 41, 1, 0]", fillcolor="#e63e84"] ;
7 -> 9 ;
10 [label="gini = 0.0\nsamples = 7\nvalue = [0, 0, 0, 0, 0, 0, 0, 0, 0, 0, 0, 0, 0, 0\n0, 0, 0, 0, 0, 13, 0, 0]", fillcolor="#e53981"] ;
9 -> 10 ;
11 [label="X[4] <= 2.5\ngini = 0.07\nsamples = 16\nvalue = [0, 0, 0, 0, 0, 0, 0, 0, 0, 0, 0, 0, 0, 0\n0, 0, 0, 0, 0, 28, 1, 0]", fillcolor="#e64086"] ;
9 -> 11 ;
12 [label="gini = 0.09\nsamples = 12\nvalue = [0, 0, 0, 0, 0, 0, 0, 0, 0, 0, 0, 0, 0, 0\n0, 0, 0, 0, 0, 21, 1, 0]", fillcolor="#e64287"] ;
11 -> 12 ;
13 [label="gini = 0.0\nsamples = 4\nvalue = [0, 0, 0, 0, 0, 0, 0, 0, 0, 0, 0, 0, 0, 0\n0, 0, 0, 0, 0, 7, 0, 0]", fillcolor="#e53981"] ;
11 -> 13 ;
14 [label="X[3] <= 26.5\ngini = 0.06\nsamples = 63\nvalue = [0, 0, 0, 0, 0, 0, 0, 0, 0, 0, 3, 0, 0, 0\n0, 0, 0, 0, 0, 89, 0, 0]", fillcolor="#e64085"] ;
4 -> 14 ;
15 [label="gini = 0.0\nsamples = 60\nvalue = [0, 0, 0, 0, 0, 0, 0, 0, 0, 0, 0, 0, 0, 0\n0, 0, 0, 0, 0, 89, 0, 0]", fillcolor="#e53981"] ;
14 -> 15 ;
16 [label="gini = 0.0\nsamples = 3\nvalue = [0, 0, 0, 0, 0, 0, 0, 0, 0, 0, 3, 0, 0, 0\n0, 0, 0, 0, 0, 0, 0, 0]", fillcolor="#39cee5"] ;
14 -> 16 ;
17 [label="X[2] <= 45.5\ngini = 0.42\nsamples = 384\nvalue = [0, 0, 0, 0, 0, 1, 0, 0, 0, 8, 0, 0, 3, 0\n0, 0, 0, 0, 0, 461, 51, 97]", fillcolor="#ed75a7"] ;
3 -> 17 ;
18 [label="X[0] <= 119.5\ngini = 0.19\nsamples = 256\nvalue = [0, 0, 0, 0, 0, 1, 0, 0, 0, 8, 0, 0, 3, 0\n0, 0, 0, 0, 0, 369, 28, 2]", fillcolor="#e84f8f"] ;
17 -> 18 ;
19 [label="X[1] <= 16.5\ngini = 0.24\nsamples = 195\nvalue = [0, 0, 0, 0, 0, 1, 0, 0, 0, 8, 0, 0, 3, 0\n0, 0, 0, 0, 0, 268, 28, 1]", fillcolor="#e95693"] ;
18 -> 19 ;
20 [label="X[3] <= 18.5\ngini = 0.22\nsamples = 54\nvalue = [0, 0, 0, 0, 0, 0, 0, 0, 0, 8, 0, 0, 3, 0\n0, 0, 0, 0, 0, 79, 0, 0]", fillcolor="#e85492"] ;
19 -> 20 ;
21 [label="X[2] <= 28.0\ngini = 0.41\nsamples = 23\nvalue = [0, 0, 0, 0, 0, 0, 0, 0, 0, 8, 0, 0, 3, 0\n0, 0, 0, 0, 0, 32, 0, 0]", fillcolor="#ed77a9"] ;
20 -> 21 ;
22 [label="X[3] <= 17.5\ngini = 0.51\nsamples = 17\nvalue = [0, 0, 0, 0, 0, 0, 0, 0, 0, 8, 0, 0, 3, 0\n0, 0, 0, 0, 0, 20, 0, 0]", fillcolor="#f198bd"] ;
21 -> 22 ;
23 [label="X[0] <= 81.5\ngini = 0.3\nsamples = 8\nvalue = [0, 0, 0, 0, 0, 0, 0, 0, 0, 0, 0, 0, 3, 0\n0, 0, 0, 0, 0, 13, 0, 0]", fillcolor="#eb679e"] ;
22 -> 23 ;
24 [label="gini = 0.49\nsamples = 4\nvalue = [0, 0, 0, 0, 0, 0, 0, 0, 0, 0, 0, 0, 3, 0\n0, 0, 0, 0, 0, 4, 0, 0]", fillcolor="#f8cee0"] ;
23 -> 24 ;
25 [label="gini = 0.0\nsamples = 4\nvalue = [0, 0, 0, 0, 0, 0, 0, 0, 0, 0, 0, 0, 0, 0\n0, 0, 0, 0, 0, 9, 0, 0]", fillcolor="#e53981"] ;
23 -> 25 ;
26 [label="X[4] <= 6.0\ngini = 0.5\nsamples = 9\nvalue = [0, 0, 0, 0, 0, 0, 0, 0, 0, 8, 0, 0, 0, 0\n0, 0, 0, 0, 0, 7, 0, 0]", fillcolor="#e6fcf9"] ;
22 -> 26 ;
27 [label="gini = 0.0\nsamples = 5\nvalue = [0, 0, 0, 0, 0, 0, 0, 0, 0, 0, 0, 0, 0, 0\n0, 0, 0, 0, 0, 7, 0, 0]", fillcolor="#e53981"] ;
26 -> 27 ;
28 [label="gini = 0.0\nsamples = 4\nvalue = [0, 0, 0, 0, 0, 0, 0, 0, 0, 8, 0, 0, 0, 0\n0, 0, 0, 0, 0, 0, 0, 0]", fillcolor="#39e5ce"] ;
26 -> 28 ;
29 [label="gini = 0.0\nsamples = 6\nvalue = [0, 0, 0, 0, 0, 0, 0, 0, 0, 0, 0, 0, 0, 0\n0, 0, 0, 0, 0, 12, 0, 0]", fillcolor="#e53981"] ;
21 -> 29 ;
30 [label="gini = 0.0\nsamples = 31\nvalue = [0, 0, 0, 0, 0, 0, 0, 0, 0, 0, 0, 0, 0, 0\n0, 0, 0, 0, 0, 47, 0, 0]", fillcolor="#e53981"] ;
20 -> 30 ;
31 [label="X[2] <= 25.0\ngini = 0.24\nsamples = 141\nvalue = [0, 0, 0, 0, 0, 1, 0, 0, 0, 0, 0, 0, 0, 0\n0, 0, 0, 0, 0, 189, 28, 1]", fillcolor="#e95895"] ;
19 -> 31 ;
32 [label="X[0] <= 67.5\ngini = 0.23\nsamples = 140\nvalue = [0, 0, 0, 0, 0, 1, 0, 0, 0, 0, 0, 0, 0, 0\n0, 0, 0, 0, 0, 189, 28, 0]", fillcolor="#e95794"] ;
31 -> 32 ;
33 [label="X[3] <= 71.5\ngini = 0.17\nsamples = 129\nvalue = [0, 0, 0, 0, 0, 1, 0, 0, 0, 0, 0, 0, 0, 0\n0, 0, 0, 0, 0, 179, 18, 0]", fillcolor="#e84e8e"] ;
32 -> 33 ;
34 [label="X[2] <= 6.5\ngini = 0.25\nsamples = 52\nvalue = [0, 0, 0, 0, 0, 0, 0, 0, 0, 0, 0, 0, 0, 0\n0, 0, 0, 0, 0, 74, 13, 0]", fillcolor="#ea5c97"] ;
33 -> 34 ;
35 [label="gini = 0.0\nsamples = 13\nvalue = [0, 0, 0, 0, 0, 0, 0, 0, 0, 0, 0, 0, 0, 0\n0, 0, 0, 0, 0, 21, 0, 0]", fillcolor="#e53981"] ;
34 -> 35 ;
36 [label="X[3] <= 67.0\ngini = 0.32\nsamples = 39\nvalue = [0, 0, 0, 0, 0, 0, 0, 0, 0, 0, 0, 0, 0, 0\n0, 0, 0, 0, 0, 53, 13, 0]", fillcolor="#eb6aa0"] ;
34 -> 36 ;
37 [label="X[4] <= 8.0\ngini = 0.18\nsamples = 32\nvalue = [0, 0, 0, 0, 0, 0, 0, 0, 0, 0, 0, 0, 0, 0\n0, 0, 0, 0, 0, 46, 5, 0]", fillcolor="#e84f8f"] ;
36 -> 37 ;
38 [label="X[3] <= 65.5\ngini = 0.18\nsamples = 31\nvalue = [0, 0, 0, 0, 0, 0, 0, 0, 0, 0, 0, 0, 0, 0\n0, 0, 0, 0, 0, 44, 5, 0]", fillcolor="#e8508f"] ;
37 -> 38 ;
39 [label="gini = 0.18\nsamples = 26\nvalue = [0, 0, 0, 0, 0, 0, 0, 0, 0, 0, 0, 0, 0, 0\n0, 0, 0, 0, 0, 37, 4, 0]", fillcolor="#e84e8f"] ;
38 -> 39 ;
40 [label="gini = 0.22\nsamples = 5\nvalue = [0, 0, 0, 0, 0, 0, 0, 0, 0, 0, 0, 0, 0, 0\n0, 0, 0, 0, 0, 7, 1, 0]", fillcolor="#e95593"] ;
38 -> 40 ;
41 [label="gini = 0.0\nsamples = 1\nvalue = [0, 0, 0, 0, 0, 0, 0, 0, 0, 0, 0, 0, 0, 0\n0, 0, 0, 0, 0, 2, 0, 0]", fillcolor="#e53981"] ;
37 -> 41 ;
42 [label="X[3] <= 69.5\ngini = 0.5\nsamples = 7\nvalue = [0, 0, 0, 0, 0, 0, 0, 0, 0, 0, 0, 0, 0, 0\n0, 0, 0, 0, 0, 7, 8, 0]", fillcolor="#fce6e9"] ;
36 -> 42 ;
43 [label="X[4] <= 8.0\ngini = 0.28\nsamples = 3\nvalue = [0, 0, 0, 0, 0, 0, 0, 0, 0, 0, 0, 0, 0, 0\n0, 0, 0, 0, 0, 1, 5, 0]", fillcolor="#ea6173"] ;
42 -> 43 ;
44 [label="gini = 0.0\nsamples = 2\nvalue = [0, 0, 0, 0, 0, 0, 0, 0, 0, 0, 0, 0, 0, 0\n0, 0, 0, 0, 0, 0, 5, 0]", fillcolor="#e53950"] ;
43 -> 44 ;
45 [label="gini = 0.0\nsamples = 1\nvalue = [0, 0, 0, 0, 0, 0, 0, 0, 0, 0, 0, 0, 0, 0\n0, 0, 0, 0, 0, 1, 0, 0]", fillcolor="#e53981"] ;
43 -> 45 ;
46 [label="X[4] <= 8.0\ngini = 0.44\nsamples = 4\nvalue = [0, 0, 0, 0, 0, 0, 0, 0, 0, 0, 0, 0, 0, 0\n0, 0, 0, 0, 0, 6, 3, 0]", fillcolor="#f29cc0"] ;
42 -> 46 ;
47 [label="gini = 0.5\nsamples = 3\nvalue = [0, 0, 0, 0, 0, 0, 0, 0, 0, 0, 0, 0, 0, 0\n0, 0, 0, 0, 0, 3, 3, 0]", fillcolor="#ffffff"] ;
46 -> 47 ;
48 [label="gini = 0.0\nsamples = 1\nvalue = [0, 0, 0, 0, 0, 0, 0, 0, 0, 0, 0, 0, 0, 0\n0, 0, 0, 0, 0, 3, 0, 0]", fillcolor="#e53981"] ;
46 -> 48 ;
49 [label="X[0] <= 48.0\ngini = 0.1\nsamples = 77\nvalue = [0, 0, 0, 0, 0, 1, 0, 0, 0, 0, 0, 0, 0, 0\n0, 0, 0, 0, 0, 105, 5, 0]", fillcolor="#e64488"] ;
33 -> 49 ;
50 [label="gini = 0.0\nsamples = 47\nvalue = [0, 0, 0, 0, 0, 0, 0, 0, 0, 0, 0, 0, 0, 0\n0, 0, 0, 0, 0, 61, 0, 0]", fillcolor="#e53981"] ;
49 -> 50 ;
51 [label="X[3] <= 84.5\ngini = 0.22\nsamples = 30\nvalue = [0, 0, 0, 0, 0, 1, 0, 0, 0, 0, 0, 0, 0, 0\n0, 0, 0, 0, 0, 44, 5, 0]", fillcolor="#e85392"] ;
49 -> 51 ;
52 [label="gini = 0.0\nsamples = 13\nvalue = [0, 0, 0, 0, 0, 0, 0, 0, 0, 0, 0, 0, 0, 0\n0, 0, 0, 0, 0, 28, 0, 0]", fillcolor="#e53981"] ;
51 -> 52 ;
53 [label="X[2] <= 6.5\ngini = 0.42\nsamples = 17\nvalue = [0, 0, 0, 0, 0, 1, 0, 0, 0, 0, 0, 0, 0, 0\n0, 0, 0, 0, 0, 16, 5, 0]", fillcolor="#ee7fad"] ;
51 -> 53 ;
54 [label="X[3] <= 95.5\ngini = 0.14\nsamples = 11\nvalue = [0, 0, 0, 0, 0, 1, 0, 0, 0, 0, 0, 0, 0, 0\n0, 0, 0, 0, 0, 12, 0, 0]", fillcolor="#e7498c"] ;
53 -> 54 ;
55 [label="gini = 0.0\nsamples = 7\nvalue = [0, 0, 0, 0, 0, 0, 0, 0, 0, 0, 0, 0, 0, 0\n0, 0, 0, 0, 0, 9, 0, 0]", fillcolor="#e53981"] ;
54 -> 55 ;
56 [label="X[4] <= 8.0\ngini = 0.38\nsamples = 4\nvalue = [0, 0, 0, 0, 0, 1, 0, 0, 0, 0, 0, 0, 0, 0\n0, 0, 0, 0, 0, 3, 0, 0]", fillcolor="#ee7bab"] ;
54 -> 56 ;
57 [label="X[0] <= 64.5\ngini = 0.44\nsamples = 3\nvalue = [0, 0, 0, 0, 0, 1, 0, 0, 0, 0, 0, 0, 0, 0\n0, 0, 0, 0, 0, 2, 0, 0]", fillcolor="#f29cc0"] ;
56 -> 57 ;
58 [label="gini = 0.5\nsamples = 2\nvalue = [0, 0, 0, 0, 0, 1, 0, 0, 0, 0, 0, 0, 0, 0\n0, 0, 0, 0, 0, 1, 0, 0]", fillcolor="#ffffff"] ;
57 -> 58 ;
59 [label="gini = 0.0\nsamples = 1\nvalue = [0, 0, 0, 0, 0, 0, 0, 0, 0, 0, 0, 0, 0, 0\n0, 0, 0, 0, 0, 1, 0, 0]", fillcolor="#e53981"] ;
57 -> 59 ;
60 [label="gini = 0.0\nsamples = 1\nvalue = [0, 0, 0, 0, 0, 0, 0, 0, 0, 0, 0, 0, 0, 0\n0, 0, 0, 0, 0, 1, 0, 0]", fillcolor="#e53981"] ;
56 -> 60 ;
61 [label="X[4] <= 8.0\ngini = 0.49\nsamples = 6\nvalue = [0, 0, 0, 0, 0, 0, 0, 0, 0, 0, 0, 0, 0, 0\n0, 0, 0, 0, 0, 4, 5, 0]", fillcolor="#fad7dc"] ;
53 -> 61 ;
62 [label="gini = 0.47\nsamples = 5\nvalue = [0, 0, 0, 0, 0, 0, 0, 0, 0, 0, 0, 0, 0, 0\n0, 0, 0, 0, 0, 3, 5, 0]", fillcolor="#f5b0b9"] ;
61 -> 62 ;
63 [label="gini = 0.0\nsamples = 1\nvalue = [0, 0, 0, 0, 0, 0, 0, 0, 0, 0, 0, 0, 0, 0\n0, 0, 0, 0, 0, 1, 0, 0]", fillcolor="#e53981"] ;
61 -> 63 ;
64 [label="X[4] <= 8.0\ngini = 0.5\nsamples = 11\nvalue = [0, 0, 0, 0, 0, 0, 0, 0, 0, 0, 0, 0, 0, 0\n0, 0, 0, 0, 0, 10, 10, 0]", fillcolor="#ffffff"] ;
32 -> 64 ;
65 [label="X[0] <= 97.5\ngini = 0.47\nsamples = 8\nvalue = [0, 0, 0, 0, 0, 0, 0, 0, 0, 0, 0, 0, 0, 0\n0, 0, 0, 0, 0, 6, 10, 0]", fillcolor="#f5b0b9"] ;
64 -> 65 ;
66 [label="X[3] <= 69.5\ngini = 0.5\nsamples = 5\nvalue = [0, 0, 0, 0, 0, 0, 0, 0, 0, 0, 0, 0, 0, 0\n0, 0, 0, 0, 0, 6, 5, 0]", fillcolor="#fbdeea"] ;
65 -> 66 ;
67 [label="gini = 0.48\nsamples = 3\nvalue = [0, 0, 0, 0, 0, 0, 0, 0, 0, 0, 0, 0, 0, 0\n0, 0, 0, 0, 0, 3, 2, 0]", fillcolor="#f6bdd5"] ;
66 -> 67 ;
68 [label="gini = 0.5\nsamples = 2\nvalue = [0, 0, 0, 0, 0, 0, 0, 0, 0, 0, 0, 0, 0, 0\n0, 0, 0, 0, 0, 3, 3, 0]", fillcolor="#ffffff"] ;
66 -> 68 ;
69 [label="gini = 0.0\nsamples = 3\nvalue = [0, 0, 0, 0, 0, 0, 0, 0, 0, 0, 0, 0, 0, 0\n0, 0, 0, 0, 0, 0, 5, 0]", fillcolor="#e53950"] ;
65 -> 69 ;
70 [label="gini = 0.0\nsamples = 3\nvalue = [0, 0, 0, 0, 0, 0, 0, 0, 0, 0, 0, 0, 0, 0\n0, 0, 0, 0, 0, 4, 0, 0]", fillcolor="#e53981"] ;
64 -> 70 ;
71 [label="gini = 0.0\nsamples = 1\nvalue = [0, 0, 0, 0, 0, 0, 0, 0, 0, 0, 0, 0, 0, 0\n0, 0, 0, 0, 0, 0, 0, 1]", fillcolor="#e55039"] ;
31 -> 71 ;
72 [label="X[0] <= 203.5\ngini = 0.02\nsamples = 61\nvalue = [0, 0, 0, 0, 0, 0, 0, 0, 0, 0, 0, 0, 0, 0\n0, 0, 0, 0, 0, 101, 0, 1]", fillcolor="#e53b82"] ;
18 -> 72 ;
73 [label="gini = 0.0\nsamples = 60\nvalue = [0, 0, 0, 0, 0, 0, 0, 0, 0, 0, 0, 0, 0, 0\n0, 0, 0, 0, 0, 101, 0, 0]", fillcolor="#e53981"] ;
72 -> 73 ;
74 [label="gini = 0.0\nsamples = 1\nvalue = [0, 0, 0, 0, 0, 0, 0, 0, 0, 0, 0, 0, 0, 0\n0, 0, 0, 0, 0, 0, 0, 1]", fillcolor="#e55039"] ;
72 -> 74 ;
75 [label="X[1] <= 31.0\ngini = 0.59\nsamples = 128\nvalue = [0, 0, 0, 0, 0, 0, 0, 0, 0, 0, 0, 0, 0, 0\n0, 0, 0, 0, 0, 92, 23, 95]", fillcolor="#fefbfa"] ;
17 -> 75 ;
76 [label="X[3] <= 13.0\ngini = 0.48\nsamples = 70\nvalue = [0, 0, 0, 0, 0, 0, 0, 0, 0, 0, 0, 0, 0, 0\n0, 0, 0, 0, 0, 80, 23, 14]", fillcolor="#ef87b3"] ;
75 -> 76 ;
77 [label="X[1] <= 23.0\ngini = 0.5\nsamples = 32\nvalue = [0, 0, 0, 0, 0, 0, 0, 0, 0, 0, 0, 0, 0, 0\n0, 0, 0, 0, 0, 28, 23, 0]", fillcolor="#fadce8"] ;
76 -> 77 ;
78 [label="X[3] <= 6.5\ngini = 0.39\nsamples = 19\nvalue = [0, 0, 0, 0, 0, 0, 0, 0, 0, 0, 0, 0, 0, 0\n0, 0, 0, 0, 0, 25, 9, 0]", fillcolor="#ee80ae"] ;
77 -> 78 ;
79 [label="gini = 0.0\nsamples = 7\nvalue = [0, 0, 0, 0, 0, 0, 0, 0, 0, 0, 0, 0, 0, 0\n0, 0, 0, 0, 0, 11, 0, 0]", fillcolor="#e53981"] ;
78 -> 79 ;
80 [label="X[2] <= 119.0\ngini = 0.48\nsamples = 12\nvalue = [0, 0, 0, 0, 0, 0, 0, 0, 0, 0, 0, 0, 0, 0\n0, 0, 0, 0, 0, 14, 9, 0]", fillcolor="#f6b8d2"] ;
78 -> 80 ;
81 [label="X[2] <= 99.0\ngini = 0.39\nsamples = 7\nvalue = [0, 0, 0, 0, 0, 0, 0, 0, 0, 0, 0, 0, 0, 0\n0, 0, 0, 0, 0, 11, 4, 0]", fillcolor="#ee81af"] ;
80 -> 81 ;
82 [label="X[4] <= 10.0\ngini = 0.48\nsamples = 2\nvalue = [0, 0, 0, 0, 0, 0, 0, 0, 0, 0, 0, 0, 0, 0\n0, 0, 0, 0, 0, 2, 3, 0]", fillcolor="#f6bdc5"] ;
81 -> 82 ;
83 [label="gini = 0.0\nsamples = 1\nvalue = [0, 0, 0, 0, 0, 0, 0, 0, 0, 0, 0, 0, 0, 0\n0, 0, 0, 0, 0, 0, 3, 0]", fillcolor="#e53950"] ;
82 -> 83 ;
84 [label="gini = 0.0\nsamples = 1\nvalue = [0, 0, 0, 0, 0, 0, 0, 0, 0, 0, 0, 0, 0, 0\n0, 0, 0, 0, 0, 2, 0, 0]", fillcolor="#e53981"] ;
82 -> 84 ;
85 [label="X[4] <= 10.0\ngini = 0.18\nsamples = 5\nvalue = [0, 0, 0, 0, 0, 0, 0, 0, 0, 0, 0, 0, 0, 0\n0, 0, 0, 0, 0, 9, 1, 0]", fillcolor="#e84f8f"] ;
81 -> 85 ;
86 [label="X[1] <= 9.0\ngini = 0.44\nsamples = 2\nvalue = [0, 0, 0, 0, 0, 0, 0, 0, 0, 0, 0, 0, 0, 0\n0, 0, 0, 0, 0, 2, 1, 0]", fillcolor="#f29cc0"] ;
85 -> 86 ;
87 [label="gini = 0.0\nsamples = 1\nvalue = [0, 0, 0, 0, 0, 0, 0, 0, 0, 0, 0, 0, 0, 0\n0, 0, 0, 0, 0, 0, 1, 0]", fillcolor="#e53950"] ;
86 -> 87 ;
88 [label="gini = 0.0\nsamples = 1\nvalue = [0, 0, 0, 0, 0, 0, 0, 0, 0, 0, 0, 0, 0, 0\n0, 0, 0, 0, 0, 2, 0, 0]", fillcolor="#e53981"] ;
86 -> 88 ;
89 [label="gini = 0.0\nsamples = 3\nvalue = [0, 0, 0, 0, 0, 0, 0, 0, 0, 0, 0, 0, 0, 0\n0, 0, 0, 0, 0, 7, 0, 0]", fillcolor="#e53981"] ;
85 -> 89 ;
90 [label="X[4] <= 10.0\ngini = 0.47\nsamples = 5\nvalue = [0, 0, 0, 0, 0, 0, 0, 0, 0, 0, 0, 0, 0, 0\n0, 0, 0, 0, 0, 3, 5, 0]", fillcolor="#f5b0b9"] ;
80 -> 90 ;
91 [label="gini = 0.0\nsamples = 3\nvalue = [0, 0, 0, 0, 0, 0, 0, 0, 0, 0, 0, 0, 0, 0\n0, 0, 0, 0, 0, 0, 5, 0]", fillcolor="#e53950"] ;
90 -> 91 ;
92 [label="gini = 0.0\nsamples = 2\nvalue = [0, 0, 0, 0, 0, 0, 0, 0, 0, 0, 0, 0, 0, 0\n0, 0, 0, 0, 0, 3, 0, 0]", fillcolor="#e53981"] ;
90 -> 92 ;
93 [label="X[2] <= 70.0\ngini = 0.29\nsamples = 13\nvalue = [0, 0, 0, 0, 0, 0, 0, 0, 0, 0, 0, 0, 0, 0\n0, 0, 0, 0, 0, 3, 14, 0]", fillcolor="#eb6376"] ;
77 -> 93 ;
94 [label="X[4] <= 10.0\ngini = 0.15\nsamples = 10\nvalue = [0, 0, 0, 0, 0, 0, 0, 0, 0, 0, 0, 0, 0, 0\n0, 0, 0, 0, 0, 1, 11, 0]", fillcolor="#e74b60"] ;
93 -> 94 ;
95 [label="gini = 0.0\nsamples = 9\nvalue = [0, 0, 0, 0, 0, 0, 0, 0, 0, 0, 0, 0, 0, 0\n0, 0, 0, 0, 0, 0, 11, 0]", fillcolor="#e53950"] ;
94 -> 95 ;
96 [label="gini = 0.0\nsamples = 1\nvalue = [0, 0, 0, 0, 0, 0, 0, 0, 0, 0, 0, 0, 0, 0\n0, 0, 0, 0, 0, 1, 0, 0]", fillcolor="#e53981"] ;
94 -> 96 ;
97 [label="X[4] <= 7.5\ngini = 0.48\nsamples = 3\nvalue = [0, 0, 0, 0, 0, 0, 0, 0, 0, 0, 0, 0, 0, 0\n0, 0, 0, 0, 0, 2, 3, 0]", fillcolor="#f6bdc5"] ;
93 -> 97 ;
98 [label="gini = 0.0\nsamples = 2\nvalue = [0, 0, 0, 0, 0, 0, 0, 0, 0, 0, 0, 0, 0, 0\n0, 0, 0, 0, 0, 0, 3, 0]", fillcolor="#e53950"] ;
97 -> 98 ;
99 [label="gini = 0.0\nsamples = 1\nvalue = [0, 0, 0, 0, 0, 0, 0, 0, 0, 0, 0, 0, 0, 0\n0, 0, 0, 0, 0, 2, 0, 0]", fillcolor="#e53981"] ;
97 -> 99 ;
100 [label="X[2] <= 85.5\ngini = 0.33\nsamples = 38\nvalue = [0, 0, 0, 0, 0, 0, 0, 0, 0, 0, 0, 0, 0, 0\n0, 0, 0, 0, 0, 52, 0, 14]", fillcolor="#ec6ea3"] ;
76 -> 100 ;
101 [label="gini = 0.0\nsamples = 7\nvalue = [0, 0, 0, 0, 0, 0, 0, 0, 0, 0, 0, 0, 0, 0\n0, 0, 0, 0, 0, 0, 0, 13]", fillcolor="#e55039"] ;
100 -> 101 ;
102 [label="X[3] <= 353.5\ngini = 0.04\nsamples = 31\nvalue = [0, 0, 0, 0, 0, 0, 0, 0, 0, 0, 0, 0, 0, 0\n0, 0, 0, 0, 0, 52, 0, 1]", fillcolor="#e63d83"] ;
100 -> 102 ;
103 [label="gini = 0.0\nsamples = 30\nvalue = [0, 0, 0, 0, 0, 0, 0, 0, 0, 0, 0, 0, 0, 0\n0, 0, 0, 0, 0, 52, 0, 0]", fillcolor="#e53981"] ;
102 -> 103 ;
104 [label="gini = 0.0\nsamples = 1\nvalue = [0, 0, 0, 0, 0, 0, 0, 0, 0, 0, 0, 0, 0, 0\n0, 0, 0, 0, 0, 0, 0, 1]", fillcolor="#e55039"] ;
102 -> 104 ;
105 [label="X[4] <= 9.5\ngini = 0.22\nsamples = 58\nvalue = [0, 0, 0, 0, 0, 0, 0, 0, 0, 0, 0, 0, 0, 0\n0, 0, 0, 0, 0, 12, 0, 81]", fillcolor="#e96a56"] ;
75 -> 105 ;
106 [label="gini = 0.0\nsamples = 51\nvalue = [0, 0, 0, 0, 0, 0, 0, 0, 0, 0, 0, 0, 0, 0\n0, 0, 0, 0, 0, 0, 0, 81]", fillcolor="#e55039"] ;
105 -> 106 ;
107 [label="gini = 0.0\nsamples = 7\nvalue = [0, 0, 0, 0, 0, 0, 0, 0, 0, 0, 0, 0, 0, 0\n0, 0, 0, 0, 0, 12, 0, 0]", fillcolor="#e53981"] ;
105 -> 107 ;
108 [label="X[4] <= 2.5\ngini = 0.02\nsamples = 3320\nvalue = [0, 0, 0, 0, 0, 4, 0, 0, 1, 3, 0, 0, 0, 0\n0, 0, 0, 0, 0, 5196, 15, 34]", fillcolor="#e53b82"] ;
2 -> 108 ;
109 [label="gini = 0.0\nsamples = 2135\nvalue = [0, 0, 0, 0, 0, 0, 0, 0, 0, 0, 0, 0, 0, 0\n0, 0, 0, 0, 0, 3399, 0, 0]", fillcolor="#e53981"] ;
108 -> 109 ;
110 [label="X[4] <= 4.5\ngini = 0.06\nsamples = 1185\nvalue = [0, 0, 0, 0, 0, 4, 0, 0, 1, 3, 0, 0, 0, 0\n0, 0, 0, 0, 0, 1797, 15, 34]", fillcolor="#e63f85"] ;
108 -> 110 ;
111 [label="X[1] <= 114.0\ngini = 0.21\nsamples = 12\nvalue = [0, 0, 0, 0, 0, 0, 0, 0, 0, 1, 0, 0, 0, 0\n0, 0, 0, 0, 0, 1, 15, 0]", fillcolor="#e85266"] ;
110 -> 111 ;
112 [label="gini = 0.0\nsamples = 10\nvalue = [0, 0, 0, 0, 0, 0, 0, 0, 0, 0, 0, 0, 0, 0\n0, 0, 0, 0, 0, 0, 15, 0]", fillcolor="#e53950"] ;
111 -> 112 ;
113 [label="X[3] <= 274.5\ngini = 0.5\nsamples = 2\nvalue = [0, 0, 0, 0, 0, 0, 0, 0, 0, 1, 0, 0, 0, 0\n0, 0, 0, 0, 0, 1, 0, 0]", fillcolor="#ffffff"] ;
111 -> 113 ;
114 [label="gini = 0.0\nsamples = 1\nvalue = [0, 0, 0, 0, 0, 0, 0, 0, 0, 1, 0, 0, 0, 0\n0, 0, 0, 0, 0, 0, 0, 0]", fillcolor="#39e5ce"] ;
113 -> 114 ;
115 [label="gini = 0.0\nsamples = 1\nvalue = [0, 0, 0, 0, 0, 0, 0, 0, 0, 0, 0, 0, 0, 0\n0, 0, 0, 0, 0, 1, 0, 0]", fillcolor="#e53981"] ;
113 -> 115 ;
116 [label="X[0] <= 31.0\ngini = 0.04\nsamples = 1173\nvalue = [0, 0, 0, 0, 0, 4, 0, 0, 1, 2, 0, 0, 0, 0\n0, 0, 0, 0, 0, 1796, 0, 34]", fillcolor="#e63e84"] ;
110 -> 116 ;
117 [label="X[2] <= 164.5\ngini = 0.4\nsamples = 86\nvalue = [0, 0, 0, 0, 0, 0, 0, 0, 0, 2, 0, 0, 0, 0\n0, 0, 0, 0, 0, 100, 0, 34]", fillcolor="#ee7fad"] ;
116 -> 117 ;
118 [label="X[4] <= 9.0\ngini = 0.22\nsamples = 73\nvalue = [0, 0, 0, 0, 0, 0, 0, 0, 0, 2, 0, 0, 0, 0\n0, 0, 0, 0, 0, 100, 0, 12]", fillcolor="#e95492"] ;
117 -> 118 ;
119 [label="X[2] <= 26.0\ngini = 0.41\nsamples = 36\nvalue = [0, 0, 0, 0, 0, 0, 0, 0, 0, 2, 0, 0, 0, 0\n0, 0, 0, 0, 0, 38, 0, 12]", fillcolor="#ee7ead"] ;
118 -> 119 ;
120 [label="X[3] <= 48.5\ngini = 0.57\nsamples = 19\nvalue = [0, 0, 0, 0, 0, 0, 0, 0, 0, 2, 0, 0, 0, 0\n0, 0, 0, 0, 0, 13, 0, 12]", fillcolor="#fdf2f7"] ;
119 -> 120 ;
121 [label="X[4] <= 6.0\ngini = 0.32\nsamples = 7\nvalue = [0, 0, 0, 0, 0, 0, 0, 0, 0, 2, 0, 0, 0, 0\n0, 0, 0, 0, 0, 8, 0, 0]", fillcolor="#ec6aa0"] ;
120 -> 121 ;
122 [label="gini = 0.0\nsamples = 1\nvalue = [0, 0, 0, 0, 0, 0, 0, 0, 0, 2, 0, 0, 0, 0\n0, 0, 0, 0, 0, 0, 0, 0]", fillcolor="#39e5ce"] ;
121 -> 122 ;
123 [label="gini = 0.0\nsamples = 6\nvalue = [0, 0, 0, 0, 0, 0, 0, 0, 0, 0, 0, 0, 0, 0\n0, 0, 0, 0, 0, 8, 0, 0]", fillcolor="#e53981"] ;
121 -> 123 ;
124 [label="X[4] <= 6.0\ngini = 0.42\nsamples = 12\nvalue = [0, 0, 0, 0, 0, 0, 0, 0, 0, 0, 0, 0, 0, 0\n0, 0, 0, 0, 0, 5, 0, 12]", fillcolor="#f0998b"] ;
120 -> 124 ;
125 [label="gini = 0.0\nsamples = 3\nvalue = [0, 0, 0, 0, 0, 0, 0, 0, 0, 0, 0, 0, 0, 0\n0, 0, 0, 0, 0, 4, 0, 0]", fillcolor="#e53981"] ;
124 -> 125 ;
126 [label="X[1] <= 105.0\ngini = 0.14\nsamples = 9\nvalue = [0, 0, 0, 0, 0, 0, 0, 0, 0, 0, 0, 0, 0, 0\n0, 0, 0, 0, 0, 1, 0, 12]", fillcolor="#e75f49"] ;
124 -> 126 ;
127 [label="gini = 0.0\nsamples = 8\nvalue = [0, 0, 0, 0, 0, 0, 0, 0, 0, 0, 0, 0, 0, 0\n0, 0, 0, 0, 0, 0, 0, 12]", fillcolor="#e55039"] ;
126 -> 127 ;
128 [label="gini = 0.0\nsamples = 1\nvalue = [0, 0, 0, 0, 0, 0, 0, 0, 0, 0, 0, 0, 0, 0\n0, 0, 0, 0, 0, 1, 0, 0]", fillcolor="#e53981"] ;
126 -> 128 ;
129 [label="gini = 0.0\nsamples = 17\nvalue = [0, 0, 0, 0, 0, 0, 0, 0, 0, 0, 0, 0, 0, 0\n0, 0, 0, 0, 0, 25, 0, 0]", fillcolor="#e53981"] ;
119 -> 129 ;
130 [label="gini = 0.0\nsamples = 37\nvalue = [0, 0, 0, 0, 0, 0, 0, 0, 0, 0, 0, 0, 0, 0\n0, 0, 0, 0, 0, 62, 0, 0]", fillcolor="#e53981"] ;
118 -> 130 ;
131 [label="gini = 0.0\nsamples = 13\nvalue = [0, 0, 0, 0, 0, 0, 0, 0, 0, 0, 0, 0, 0, 0\n0, 0, 0, 0, 0, 0, 0, 22]", fillcolor="#e55039"] ;
117 -> 131 ;
132 [label="X[4] <= 10.0\ngini = 0.01\nsamples = 1087\nvalue = [0, 0, 0, 0, 0, 4, 0, 0, 1, 0, 0, 0, 0, 0\n0, 0, 0, 0, 0, 1696, 0, 0]", fillcolor="#e53a81"] ;
116 -> 132 ;
133 [label="X[4] <= 8.0\ngini = 0.01\nsamples = 723\nvalue = [0, 0, 0, 0, 0, 4, 0, 0, 1, 0, 0, 0, 0, 0\n0, 0, 0, 0, 0, 1129, 0, 0]", fillcolor="#e53a82"] ;
132 -> 133 ;
134 [label="X[0] <= 116.5\ngini = 0.01\nsamples = 721\nvalue = [0, 0, 0, 0, 0, 3, 0, 0, 0, 0, 0, 0, 0, 0\n0, 0, 0, 0, 0, 1129, 0, 0]", fillcolor="#e53a81"] ;
133 -> 134 ;
135 [label="X[3] <= 517.5\ngini = 0.01\nsamples = 348\nvalue = [0, 0, 0, 0, 0, 3, 0, 0, 0, 0, 0, 0, 0, 0\n0, 0, 0, 0, 0, 553, 0, 0]", fillcolor="#e53a82"] ;
134 -> 135 ;
136 [label="X[2] <= 6.5\ngini = 0.01\nsamples = 337\nvalue = [0, 0, 0, 0, 0, 2, 0, 0, 0, 0, 0, 0, 0, 0\n0, 0, 0, 0, 0, 540, 0, 0]", fillcolor="#e53a81"] ;
135 -> 136 ;
137 [label="X[3] <= 472.0\ngini = 0.02\nsamples = 151\nvalue = [0, 0, 0, 0, 0, 2, 0, 0, 0, 0, 0, 0, 0, 0\n0, 0, 0, 0, 0, 233, 0, 0]", fillcolor="#e53b82"] ;
136 -> 137 ;
138 [label="X[0] <= 87.5\ngini = 0.03\nsamples = 93\nvalue = [0, 0, 0, 0, 0, 2, 0, 0, 0, 0, 0, 0, 0, 0\n0, 0, 0, 0, 0, 135, 0, 0]", fillcolor="#e53c83"] ;
137 -> 138 ;
139 [label="gini = 0.0\nsamples = 36\nvalue = [0, 0, 0, 0, 0, 0, 0, 0, 0, 0, 0, 0, 0, 0\n0, 0, 0, 0, 0, 56, 0, 0]", fillcolor="#e53981"] ;
138 -> 139 ;
140 [label="X[0] <= 98.0\ngini = 0.05\nsamples = 57\nvalue = [0, 0, 0, 0, 0, 2, 0, 0, 0, 0, 0, 0, 0, 0\n0, 0, 0, 0, 0, 79, 0, 0]", fillcolor="#e63e84"] ;
138 -> 140 ;
141 [label="X[3] <= 470.5\ngini = 0.18\nsamples = 7\nvalue = [0, 0, 0, 0, 0, 1, 0, 0, 0, 0, 0, 0, 0, 0\n0, 0, 0, 0, 0, 9, 0, 0]", fillcolor="#e84f8f"] ;
140 -> 141 ;
142 [label="gini = 0.0\nsamples = 4\nvalue = [0, 0, 0, 0, 0, 0, 0, 0, 0, 0, 0, 0, 0, 0\n0, 0, 0, 0, 0, 7, 0, 0]", fillcolor="#e53981"] ;
141 -> 142 ;
143 [label="gini = 0.44\nsamples = 3\nvalue = [0, 0, 0, 0, 0, 1, 0, 0, 0, 0, 0, 0, 0, 0\n0, 0, 0, 0, 0, 2, 0, 0]", fillcolor="#f29cc0"] ;
141 -> 143 ;
144 [label="X[3] <= 289.5\ngini = 0.03\nsamples = 50\nvalue = [0, 0, 0, 0, 0, 1, 0, 0, 0, 0, 0, 0, 0, 0\n0, 0, 0, 0, 0, 70, 0, 0]", fillcolor="#e53c83"] ;
140 -> 144 ;
145 [label="X[0] <= 112.5\ngini = 0.07\nsamples = 22\nvalue = [0, 0, 0, 0, 0, 1, 0, 0, 0, 0, 0, 0, 0, 0\n0, 0, 0, 0, 0, 27, 0, 0]", fillcolor="#e64086"] ;
144 -> 145 ;
146 [label="gini = 0.0\nsamples = 4\nvalue = [0, 0, 0, 0, 0, 0, 0, 0, 0, 0, 0, 0, 0, 0\n0, 0, 0, 0, 0, 8, 0, 0]", fillcolor="#e53981"] ;
145 -> 146 ;
147 [label="X[3] <= 271.0\ngini = 0.09\nsamples = 18\nvalue = [0, 0, 0, 0, 0, 1, 0, 0, 0, 0, 0, 0, 0, 0\n0, 0, 0, 0, 0, 19, 0, 0]", fillcolor="#e64388"] ;
145 -> 147 ;
148 [label="gini = 0.0\nsamples = 16\nvalue = [0, 0, 0, 0, 0, 0, 0, 0, 0, 0, 0, 0, 0, 0\n0, 0, 0, 0, 0, 18, 0, 0]", fillcolor="#e53981"] ;
147 -> 148 ;
149 [label="gini = 0.5\nsamples = 2\nvalue = [0, 0, 0, 0, 0, 1, 0, 0, 0, 0, 0, 0, 0, 0\n0, 0, 0, 0, 0, 1, 0, 0]", fillcolor="#ffffff"] ;
147 -> 149 ;
150 [label="gini = 0.0\nsamples = 28\nvalue = [0, 0, 0, 0, 0, 0, 0, 0, 0, 0, 0, 0, 0, 0\n0, 0, 0, 0, 0, 43, 0, 0]", fillcolor="#e53981"] ;
144 -> 150 ;
151 [label="gini = 0.0\nsamples = 58\nvalue = [0, 0, 0, 0, 0, 0, 0, 0, 0, 0, 0, 0, 0, 0\n0, 0, 0, 0, 0, 98, 0, 0]", fillcolor="#e53981"] ;
137 -> 151 ;
152 [label="gini = 0.0\nsamples = 186\nvalue = [0, 0, 0, 0, 0, 0, 0, 0, 0, 0, 0, 0, 0, 0\n0, 0, 0, 0, 0, 307, 0, 0]", fillcolor="#e53981"] ;
136 -> 152 ;
153 [label="X[0] <= 88.5\ngini = 0.13\nsamples = 11\nvalue = [0, 0, 0, 0, 0, 1, 0, 0, 0, 0, 0, 0, 0, 0\n0, 0, 0, 0, 0, 13, 0, 0]", fillcolor="#e7488b"] ;
135 -> 153 ;
154 [label="X[3] <= 519.0\ngini = 0.38\nsamples = 4\nvalue = [0, 0, 0, 0, 0, 1, 0, 0, 0, 0, 0, 0, 0, 0\n0, 0, 0, 0, 0, 3, 0, 0]", fillcolor="#ee7bab"] ;
153 -> 154 ;
155 [label="gini = 0.0\nsamples = 1\nvalue = [0, 0, 0, 0, 0, 1, 0, 0, 0, 0, 0, 0, 0, 0\n0, 0, 0, 0, 0, 0, 0, 0]", fillcolor="#61e539"] ;
154 -> 155 ;
156 [label="gini = 0.0\nsamples = 3\nvalue = [0, 0, 0, 0, 0, 0, 0, 0, 0, 0, 0, 0, 0, 0\n0, 0, 0, 0, 0, 3, 0, 0]", fillcolor="#e53981"] ;
154 -> 156 ;
157 [label="gini = 0.0\nsamples = 7\nvalue = [0, 0, 0, 0, 0, 0, 0, 0, 0, 0, 0, 0, 0, 0\n0, 0, 0, 0, 0, 10, 0, 0]", fillcolor="#e53981"] ;
153 -> 157 ;
158 [label="gini = 0.0\nsamples = 373\nvalue = [0, 0, 0, 0, 0, 0, 0, 0, 0, 0, 0, 0, 0, 0\n0, 0, 0, 0, 0, 576, 0, 0]", fillcolor="#e53981"] ;
134 -> 158 ;
159 [label="X[1] <= 85.0\ngini = 0.5\nsamples = 2\nvalue = [0, 0, 0, 0, 0, 1, 0, 0, 1, 0, 0, 0, 0, 0\n0, 0, 0, 0, 0, 0, 0, 0]", fillcolor="#ffffff"] ;
133 -> 159 ;
160 [label="gini = 0.0\nsamples = 1\nvalue = [0, 0, 0, 0, 0, 1, 0, 0, 0, 0, 0, 0, 0, 0\n0, 0, 0, 0, 0, 0, 0, 0]", fillcolor="#61e539"] ;
159 -> 160 ;
161 [label="gini = 0.0\nsamples = 1\nvalue = [0, 0, 0, 0, 0, 0, 0, 0, 1, 0, 0, 0, 0, 0\n0, 0, 0, 0, 0, 0, 0, 0]", fillcolor="#39e59d"] ;
159 -> 161 ;
162 [label="gini = 0.0\nsamples = 364\nvalue = [0, 0, 0, 0, 0, 0, 0, 0, 0, 0, 0, 0, 0, 0\n0, 0, 0, 0, 0, 567, 0, 0]", fillcolor="#e53981"] ;
132 -> 162 ;
163 [label="X[3] <= 295.0\ngini = 0.27\nsamples = 13\nvalue = [16, 0, 0, 0, 0, 0, 0, 0, 0, 0, 3, 0, 0, 0\n0, 0, 0, 0, 0, 0, 0, 0]", fillcolor="#ea995e"] ;
1 -> 163 ;
164 [label="gini = 0.0\nsamples = 2\nvalue = [0, 0, 0, 0, 0, 0, 0, 0, 0, 0, 3, 0, 0, 0\n0, 0, 0, 0, 0, 0, 0, 0]", fillcolor="#39cee5"] ;
163 -> 164 ;
165 [label="gini = 0.0\nsamples = 11\nvalue = [16, 0, 0, 0, 0, 0, 0, 0, 0, 0, 0, 0, 0, 0\n0, 0, 0, 0, 0, 0, 0, 0]", fillcolor="#e58139"] ;
163 -> 165 ;
166 [label="X[2] <= 4.5\ngini = 0.6\nsamples = 4918\nvalue = [0, 3, 10, 5, 65, 1100, 57, 35, 0, 75, 0, 14, 0\n0, 8, 11, 49, 14, 38, 4595, 1633, 189]", fillcolor="#f3a1c3"] ;
0 -> 166 [labeldistance=2.5, labelangle=-45, headlabel="False"] ;
167 [label="X[4] <= 831.0\ngini = 0.27\nsamples = 2519\nvalue = [0, 0, 0, 5, 35, 506, 38, 35, 0, 0, 0, 0, 0\n0, 0, 0, 0, 0, 0, 3438, 0, 0]", fillcolor="#ea5c97"] ;
166 -> 167 ;
168 [label="X[1] <= 16.5\ngini = 0.55\nsamples = 479\nvalue = [0, 0, 0, 5, 35, 488, 37, 35, 0, 0, 0, 0, 0\n0, 0, 0, 0, 0, 0, 179, 0, 0]", fillcolor="#aef299"] ;
167 -> 168 ;
169 [label="X[3] <= 107.5\ngini = 0.56\nsamples = 124\nvalue = [0, 0, 0, 0, 30, 15, 17, 17, 0, 0, 0, 0, 0, 0\n0, 0, 0, 0, 0, 137, 0, 0]", fillcolor="#f08db7"] ;
168 -> 169 ;
170 [label="X[2] <= 2.0\ngini = 0.43\nsamples = 107\nvalue = [0, 0, 0, 0, 0, 15, 17, 17, 0, 0, 0, 0, 0, 0\n0, 0, 0, 0, 0, 137, 0, 0]", fillcolor="#ed72a6"] ;
169 -> 170 ;
171 [label="gini = 0.0\nsamples = 12\nvalue = [0, 0, 0, 0, 0, 0, 0, 17, 0, 0, 0, 0, 0, 0\n0, 0, 0, 0, 0, 0, 0, 0]", fillcolor="#39e56f"] ;
170 -> 171 ;
172 [label="X[0] <= 118.5\ngini = 0.32\nsamples = 95\nvalue = [0, 0, 0, 0, 0, 15, 17, 0, 0, 0, 0, 0, 0, 0\n0, 0, 0, 0, 0, 137, 0, 0]", fillcolor="#ea639c"] ;
170 -> 172 ;
173 [label="X[0] <= 79.0\ngini = 0.07\nsamples = 56\nvalue = [0, 0, 0, 0, 0, 3, 1, 0, 0, 0, 0, 0, 0, 0\n0, 0, 0, 0, 0, 101, 0, 0]", fillcolor="#e64186"] ;
172 -> 173 ;
174 [label="gini = 0.0\nsamples = 2\nvalue = [0, 0, 0, 0, 0, 3, 0, 0, 0, 0, 0, 0, 0, 0\n0, 0, 0, 0, 0, 0, 0, 0]", fillcolor="#61e539"] ;
173 -> 174 ;
175 [label="X[3] <= 26.0\ngini = 0.02\nsamples = 54\nvalue = [0, 0, 0, 0, 0, 0, 1, 0, 0, 0, 0, 0, 0, 0\n0, 0, 0, 0, 0, 101, 0, 0]", fillcolor="#e53b82"] ;
173 -> 175 ;
176 [label="X[4] <= 286.0\ngini = 0.04\nsamples = 28\nvalue = [0, 0, 0, 0, 0, 0, 1, 0, 0, 0, 0, 0, 0, 0\n0, 0, 0, 0, 0, 52, 0, 0]", fillcolor="#e63d83"] ;
175 -> 176 ;
177 [label="gini = 0.0\nsamples = 1\nvalue = [0, 0, 0, 0, 0, 0, 1, 0, 0, 0, 0, 0, 0, 0\n0, 0, 0, 0, 0, 0, 0, 0]", fillcolor="#39e541"] ;
176 -> 177 ;
178 [label="gini = 0.0\nsamples = 27\nvalue = [0, 0, 0, 0, 0, 0, 0, 0, 0, 0, 0, 0, 0, 0\n0, 0, 0, 0, 0, 52, 0, 0]", fillcolor="#e53981"] ;
176 -> 178 ;
179 [label="gini = 0.0\nsamples = 26\nvalue = [0, 0, 0, 0, 0, 0, 0, 0, 0, 0, 0, 0, 0, 0\n0, 0, 0, 0, 0, 49, 0, 0]", fillcolor="#e53981"] ;
175 -> 179 ;
180 [label="X[4] <= 686.0\ngini = 0.59\nsamples = 39\nvalue = [0, 0, 0, 0, 0, 12, 16, 0, 0, 0, 0, 0, 0, 0\n0, 0, 0, 0, 0, 36, 0, 0]", fillcolor="#f4acca"] ;
172 -> 180 ;
181 [label="X[4] <= 517.0\ngini = 0.66\nsamples = 24\nvalue = [0, 0, 0, 0, 0, 11, 16, 0, 0, 0, 0, 0, 0, 0\n0, 0, 0, 0, 0, 16, 0, 0]", fillcolor="#ffffff"] ;
180 -> 181 ;
182 [label="X[4] <= 344.5\ngini = 0.49\nsamples = 17\nvalue = [0, 0, 0, 0, 0, 11, 0, 0, 0, 0, 0, 0, 0, 0\n0, 0, 0, 0, 0, 15, 0, 0]", fillcolor="#f8cadd"] ;
181 -> 182 ;
183 [label="X[4] <= 136.0\ngini = 0.4\nsamples = 7\nvalue = [0, 0, 0, 0, 0, 8, 0, 0, 0, 0, 0, 0, 0, 0\n0, 0, 0, 0, 0, 3, 0, 0]", fillcolor="#9cef83"] ;
182 -> 183 ;
184 [label="gini = 0.0\nsamples = 2\nvalue = [0, 0, 0, 0, 0, 0, 0, 0, 0, 0, 0, 0, 0, 0\n0, 0, 0, 0, 0, 3, 0, 0]", fillcolor="#e53981"] ;
183 -> 184 ;
185 [label="gini = 0.0\nsamples = 5\nvalue = [0, 0, 0, 0, 0, 8, 0, 0, 0, 0, 0, 0, 0, 0\n0, 0, 0, 0, 0, 0, 0, 0]", fillcolor="#61e539"] ;
183 -> 185 ;
186 [label="X[3] <= 27.0\ngini = 0.32\nsamples = 10\nvalue = [0, 0, 0, 0, 0, 3, 0, 0, 0, 0, 0, 0, 0, 0\n0, 0, 0, 0, 0, 12, 0, 0]", fillcolor="#ec6aa0"] ;
182 -> 186 ;
187 [label="X[4] <= 436.0\ngini = 0.48\nsamples = 3\nvalue = [0, 0, 0, 0, 0, 3, 0, 0, 0, 0, 0, 0, 0, 0\n0, 0, 0, 0, 0, 2, 0, 0]", fillcolor="#caf6bd"] ;
186 -> 187 ;
188 [label="gini = 0.0\nsamples = 2\nvalue = [0, 0, 0, 0, 0, 0, 0, 0, 0, 0, 0, 0, 0, 0\n0, 0, 0, 0, 0, 2, 0, 0]", fillcolor="#e53981"] ;
187 -> 188 ;
189 [label="gini = 0.0\nsamples = 1\nvalue = [0, 0, 0, 0, 0, 3, 0, 0, 0, 0, 0, 0, 0, 0\n0, 0, 0, 0, 0, 0, 0, 0]", fillcolor="#61e539"] ;
187 -> 189 ;
190 [label="gini = 0.0\nsamples = 7\nvalue = [0, 0, 0, 0, 0, 0, 0, 0, 0, 0, 0, 0, 0, 0\n0, 0, 0, 0, 0, 10, 0, 0]", fillcolor="#e53981"] ;
186 -> 190 ;
191 [label="X[3] <= 26.5\ngini = 0.11\nsamples = 7\nvalue = [0, 0, 0, 0, 0, 0, 16, 0, 0, 0, 0, 0, 0, 0\n0, 0, 0, 0, 0, 1, 0, 0]", fillcolor="#45e74d"] ;
181 -> 191 ;
192 [label="gini = 0.0\nsamples = 5\nvalue = [0, 0, 0, 0, 0, 0, 14, 0, 0, 0, 0, 0, 0, 0\n0, 0, 0, 0, 0, 0, 0, 0]", fillcolor="#39e541"] ;
191 -> 192 ;
193 [label="X[4] <= 547.5\ngini = 0.44\nsamples = 2\nvalue = [0, 0, 0, 0, 0, 0, 2, 0, 0, 0, 0, 0, 0, 0\n0, 0, 0, 0, 0, 1, 0, 0]", fillcolor="#9cf2a0"] ;
191 -> 193 ;
194 [label="gini = 0.0\nsamples = 1\nvalue = [0, 0, 0, 0, 0, 0, 2, 0, 0, 0, 0, 0, 0, 0\n0, 0, 0, 0, 0, 0, 0, 0]", fillcolor="#39e541"] ;
193 -> 194 ;
195 [label="gini = 0.0\nsamples = 1\nvalue = [0, 0, 0, 0, 0, 0, 0, 0, 0, 0, 0, 0, 0, 0\n0, 0, 0, 0, 0, 1, 0, 0]", fillcolor="#e53981"] ;
193 -> 195 ;
196 [label="X[4] <= 756.0\ngini = 0.09\nsamples = 15\nvalue = [0, 0, 0, 0, 0, 1, 0, 0, 0, 0, 0, 0, 0, 0\n0, 0, 0, 0, 0, 20, 0, 0]", fillcolor="#e64387"] ;
180 -> 196 ;
197 [label="gini = 0.0\nsamples = 14\nvalue = [0, 0, 0, 0, 0, 0, 0, 0, 0, 0, 0, 0, 0, 0\n0, 0, 0, 0, 0, 20, 0, 0]", fillcolor="#e53981"] ;
196 -> 197 ;
198 [label="gini = 0.0\nsamples = 1\nvalue = [0, 0, 0, 0, 0, 1, 0, 0, 0, 0, 0, 0, 0, 0\n0, 0, 0, 0, 0, 0, 0, 0]", fillcolor="#61e539"] ;
196 -> 198 ;
199 [label="gini = 0.0\nsamples = 17\nvalue = [0, 0, 0, 0, 30, 0, 0, 0, 0, 0, 0, 0, 0, 0\n0, 0, 0, 0, 0, 0, 0, 0]", fillcolor="#8fe539"] ;
169 -> 199 ;
200 [label="X[2] <= 3.5\ngini = 0.29\nsamples = 355\nvalue = [0, 0, 0, 5, 5, 473, 20, 18, 0, 0, 0, 0, 0, 0\n0, 0, 0, 0, 0, 42, 0, 0]", fillcolor="#7ce95b"] ;
168 -> 200 ;
201 [label="X[4] <= 120.0\ngini = 0.52\nsamples = 17\nvalue = [0, 0, 0, 5, 5, 0, 0, 18, 0, 0, 0, 0, 0, 0\n0, 0, 0, 0, 0, 0, 0, 0]", fillcolor="#8ff0ae"] ;
200 -> 201 ;
202 [label="gini = 0.0\nsamples = 13\nvalue = [0, 0, 0, 0, 0, 0, 0, 18, 0, 0, 0, 0, 0, 0\n0, 0, 0, 0, 0, 0, 0, 0]", fillcolor="#39e56f"] ;
201 -> 202 ;
203 [label="X[1] <= 88.0\ngini = 0.5\nsamples = 4\nvalue = [0, 0, 0, 5, 5, 0, 0, 0, 0, 0, 0, 0, 0, 0\n0, 0, 0, 0, 0, 0, 0, 0]", fillcolor="#ffffff"] ;
201 -> 203 ;
204 [label="gini = 0.0\nsamples = 2\nvalue = [0, 0, 0, 0, 5, 0, 0, 0, 0, 0, 0, 0, 0, 0\n0, 0, 0, 0, 0, 0, 0, 0]", fillcolor="#8fe539"] ;
203 -> 204 ;
205 [label="gini = 0.0\nsamples = 2\nvalue = [0, 0, 0, 5, 0, 0, 0, 0, 0, 0, 0, 0, 0, 0\n0, 0, 0, 0, 0, 0, 0, 0]", fillcolor="#bde539"] ;
203 -> 205 ;
206 [label="X[0] <= 77.5\ngini = 0.21\nsamples = 338\nvalue = [0, 0, 0, 0, 0, 473, 20, 0, 0, 0, 0, 0, 0, 0\n0, 0, 0, 0, 0, 42, 0, 0]", fillcolor="#75e852"] ;
200 -> 206 ;
207 [label="X[0] <= 67.5\ngini = 0.43\nsamples = 47\nvalue = [0, 0, 0, 0, 0, 50, 0, 0, 0, 0, 0, 0, 0, 0\n0, 0, 0, 0, 0, 23, 0, 0]", fillcolor="#aaf194"] ;
206 -> 207 ;
208 [label="X[0] <= 26.0\ngini = 0.15\nsamples = 20\nvalue = [0, 0, 0, 0, 0, 23, 0, 0, 0, 0, 0, 0, 0, 0\n0, 0, 0, 0, 0, 2, 0, 0]", fillcolor="#6fe74a"] ;
207 -> 208 ;
209 [label="X[3] <= 84.5\ngini = 0.48\nsamples = 4\nvalue = [0, 0, 0, 0, 0, 3, 0, 0, 0, 0, 0, 0, 0, 0\n0, 0, 0, 0, 0, 2, 0, 0]", fillcolor="#caf6bd"] ;
208 -> 209 ;
210 [label="gini = 0.0\nsamples = 1\nvalue = [0, 0, 0, 0, 0, 1, 0, 0, 0, 0, 0, 0, 0, 0\n0, 0, 0, 0, 0, 0, 0, 0]", fillcolor="#61e539"] ;
209 -> 210 ;
211 [label="X[3] <= 85.5\ngini = 0.5\nsamples = 3\nvalue = [0, 0, 0, 0, 0, 2, 0, 0, 0, 0, 0, 0, 0, 0\n0, 0, 0, 0, 0, 2, 0, 0]", fillcolor="#ffffff"] ;
209 -> 211 ;
212 [label="gini = 0.0\nsamples = 1\nvalue = [0, 0, 0, 0, 0, 0, 0, 0, 0, 0, 0, 0, 0, 0\n0, 0, 0, 0, 0, 1, 0, 0]", fillcolor="#e53981"] ;
211 -> 212 ;
213 [label="X[4] <= 271.0\ngini = 0.44\nsamples = 2\nvalue = [0, 0, 0, 0, 0, 2, 0, 0, 0, 0, 0, 0, 0, 0\n0, 0, 0, 0, 0, 1, 0, 0]", fillcolor="#b0f29c"] ;
211 -> 213 ;
214 [label="gini = 0.0\nsamples = 1\nvalue = [0, 0, 0, 0, 0, 2, 0, 0, 0, 0, 0, 0, 0, 0\n0, 0, 0, 0, 0, 0, 0, 0]", fillcolor="#61e539"] ;
213 -> 214 ;
215 [label="gini = 0.0\nsamples = 1\nvalue = [0, 0, 0, 0, 0, 0, 0, 0, 0, 0, 0, 0, 0, 0\n0, 0, 0, 0, 0, 1, 0, 0]", fillcolor="#e53981"] ;
213 -> 215 ;
216 [label="gini = 0.0\nsamples = 16\nvalue = [0, 0, 0, 0, 0, 20, 0, 0, 0, 0, 0, 0, 0, 0\n0, 0, 0, 0, 0, 0, 0, 0]", fillcolor="#61e539"] ;
208 -> 216 ;
217 [label="X[3] <= 241.5\ngini = 0.49\nsamples = 27\nvalue = [0, 0, 0, 0, 0, 27, 0, 0, 0, 0, 0, 0, 0, 0\n0, 0, 0, 0, 0, 21, 0, 0]", fillcolor="#dcf9d3"] ;
207 -> 217 ;
218 [label="gini = 0.17\nsamples = 6\nvalue = [0, 0, 0, 0, 0, 1, 0, 0, 0, 0, 0, 0, 0, 0\n0, 0, 0, 0, 0, 10, 0, 0]", fillcolor="#e84d8e"] ;
217 -> 218 ;
219 [label="X[0] <= 74.0\ngini = 0.42\nsamples = 21\nvalue = [0, 0, 0, 0, 0, 26, 0, 0, 0, 0, 0, 0, 0, 0\n0, 0, 0, 0, 0, 11, 0, 0]", fillcolor="#a4f08d"] ;
217 -> 219 ;
220 [label="X[4] <= 339.0\ngini = 0.34\nsamples = 8\nvalue = [0, 0, 0, 0, 0, 11, 0, 0, 0, 0, 0, 0, 0, 0\n0, 0, 0, 0, 0, 3, 0, 0]", fillcolor="#8cec6f"] ;
219 -> 220 ;
221 [label="gini = 0.0\nsamples = 5\nvalue = [0, 0, 0, 0, 0, 9, 0, 0, 0, 0, 0, 0, 0, 0\n0, 0, 0, 0, 0, 0, 0, 0]", fillcolor="#61e539"] ;
220 -> 221 ;
222 [label="X[4] <= 525.5\ngini = 0.48\nsamples = 3\nvalue = [0, 0, 0, 0, 0, 2, 0, 0, 0, 0, 0, 0, 0, 0\n0, 0, 0, 0, 0, 3, 0, 0]", fillcolor="#f6bdd5"] ;
220 -> 222 ;
223 [label="gini = 0.0\nsamples = 2\nvalue = [0, 0, 0, 0, 0, 0, 0, 0, 0, 0, 0, 0, 0, 0\n0, 0, 0, 0, 0, 3, 0, 0]", fillcolor="#e53981"] ;
222 -> 223 ;
224 [label="gini = 0.0\nsamples = 1\nvalue = [0, 0, 0, 0, 0, 2, 0, 0, 0, 0, 0, 0, 0, 0\n0, 0, 0, 0, 0, 0, 0, 0]", fillcolor="#61e539"] ;
222 -> 224 ;
225 [label="X[4] <= 115.5\ngini = 0.45\nsamples = 13\nvalue = [0, 0, 0, 0, 0, 15, 0, 0, 0, 0, 0, 0, 0, 0\n0, 0, 0, 0, 0, 8, 0, 0]", fillcolor="#b5f3a3"] ;
219 -> 225 ;
226 [label="gini = 0.0\nsamples = 6\nvalue = [0, 0, 0, 0, 0, 15, 0, 0, 0, 0, 0, 0, 0, 0\n0, 0, 0, 0, 0, 0, 0, 0]", fillcolor="#61e539"] ;
225 -> 226 ;
227 [label="gini = 0.0\nsamples = 7\nvalue = [0, 0, 0, 0, 0, 0, 0, 0, 0, 0, 0, 0, 0, 0\n0, 0, 0, 0, 0, 8, 0, 0]", fillcolor="#e53981"] ;
225 -> 227 ;
228 [label="X[0] <= 151.5\ngini = 0.16\nsamples = 291\nvalue = [0, 0, 0, 0, 0, 423, 20, 0, 0, 0, 0, 0, 0, 0\n0, 0, 0, 0, 0, 19, 0, 0]", fillcolor="#6fe74a"] ;
206 -> 228 ;
229 [label="X[4] <= 24.0\ngini = 0.13\nsamples = 279\nvalue = [0, 0, 0, 0, 0, 406, 17, 0, 0, 0, 0, 0, 0, 0\n0, 0, 0, 0, 0, 13, 0, 0]", fillcolor="#6ce747"] ;
228 -> 229 ;
230 [label="X[3] <= 324.5\ngini = 0.32\nsamples = 3\nvalue = [0, 0, 0, 0, 0, 1, 0, 0, 0, 0, 0, 0, 0, 0\n0, 0, 0, 0, 0, 4, 0, 0]", fillcolor="#ec6aa0"] ;
229 -> 230 ;
231 [label="gini = 0.0\nsamples = 1\nvalue = [0, 0, 0, 0, 0, 1, 0, 0, 0, 0, 0, 0, 0, 0\n0, 0, 0, 0, 0, 0, 0, 0]", fillcolor="#61e539"] ;
230 -> 231 ;
232 [label="gini = 0.0\nsamples = 2\nvalue = [0, 0, 0, 0, 0, 0, 0, 0, 0, 0, 0, 0, 0, 0\n0, 0, 0, 0, 0, 4, 0, 0]", fillcolor="#e53981"] ;
230 -> 232 ;
233 [label="X[0] <= 119.5\ngini = 0.12\nsamples = 276\nvalue = [0, 0, 0, 0, 0, 405, 17, 0, 0, 0, 0, 0, 0, 0\n0, 0, 0, 0, 0, 9, 0, 0]", fillcolor="#6be745"] ;
229 -> 233 ;
234 [label="gini = 0.0\nsamples = 105\nvalue = [0, 0, 0, 0, 0, 167, 0, 0, 0, 0, 0, 0, 0, 0\n0, 0, 0, 0, 0, 0, 0, 0]", fillcolor="#61e539"] ;
233 -> 234 ;
235 [label="X[3] <= 386.0\ngini = 0.18\nsamples = 171\nvalue = [0, 0, 0, 0, 0, 238, 17, 0, 0, 0, 0, 0, 0, 0\n0, 0, 0, 0, 0, 9, 0, 0]", fillcolor="#72e84e"] ;
233 -> 235 ;
236 [label="X[0] <= 122.5\ngini = 0.16\nsamples = 168\nvalue = [0, 0, 0, 0, 0, 238, 16, 0, 0, 0, 0, 0, 0, 0\n0, 0, 0, 0, 0, 7, 0, 0]", fillcolor="#70e74c"] ;
235 -> 236 ;
237 [label="X[0] <= 121.5\ngini = 0.36\nsamples = 50\nvalue = [0, 0, 0, 0, 0, 59, 15, 0, 0, 0, 0, 0, 0, 0\n0, 0, 0, 0, 0, 2, 0, 0]", fillcolor="#8dec70"] ;
236 -> 237 ;
238 [label="X[4] <= 230.0\ngini = 0.15\nsamples = 16\nvalue = [0, 0, 0, 0, 0, 22, 2, 0, 0, 0, 0, 0, 0, 0\n0, 0, 0, 0, 0, 0, 0, 0]", fillcolor="#6fe74b"] ;
237 -> 238 ;
239 [label="gini = 0.0\nsamples = 13\nvalue = [0, 0, 0, 0, 0, 21, 0, 0, 0, 0, 0, 0, 0, 0\n0, 0, 0, 0, 0, 0, 0, 0]", fillcolor="#61e539"] ;
238 -> 239 ;
240 [label="X[3] <= 264.5\ngini = 0.44\nsamples = 3\nvalue = [0, 0, 0, 0, 0, 1, 2, 0, 0, 0, 0, 0, 0, 0\n0, 0, 0, 0, 0, 0, 0, 0]", fillcolor="#9cf2a0"] ;
238 -> 240 ;
241 [label="gini = 0.0\nsamples = 1\nvalue = [0, 0, 0, 0, 0, 0, 1, 0, 0, 0, 0, 0, 0, 0\n0, 0, 0, 0, 0, 0, 0, 0]", fillcolor="#39e541"] ;
240 -> 241 ;
242 [label="X[3] <= 298.0\ngini = 0.5\nsamples = 2\nvalue = [0, 0, 0, 0, 0, 1, 1, 0, 0, 0, 0, 0, 0, 0\n0, 0, 0, 0, 0, 0, 0, 0]", fillcolor="#ffffff"] ;
240 -> 242 ;
243 [label="gini = 0.0\nsamples = 1\nvalue = [0, 0, 0, 0, 0, 1, 0, 0, 0, 0, 0, 0, 0, 0\n0, 0, 0, 0, 0, 0, 0, 0]", fillcolor="#61e539"] ;
242 -> 243 ;
244 [label="gini = 0.0\nsamples = 1\nvalue = [0, 0, 0, 0, 0, 0, 1, 0, 0, 0, 0, 0, 0, 0\n0, 0, 0, 0, 0, 0, 0, 0]", fillcolor="#39e541"] ;
242 -> 244 ;
245 [label="X[3] <= 367.0\ngini = 0.43\nsamples = 34\nvalue = [0, 0, 0, 0, 0, 37, 13, 0, 0, 0, 0, 0, 0, 0\n0, 0, 0, 0, 0, 2, 0, 0]", fillcolor="#9eef85"] ;
237 -> 245 ;
246 [label="X[4] <= 564.5\ngini = 0.34\nsamples = 29\nvalue = [0, 0, 0, 0, 0, 37, 9, 0, 0, 0, 0, 0, 0, 0\n0, 0, 0, 0, 0, 1, 0, 0]", fillcolor="#8bec6d"] ;
245 -> 246 ;
247 [label="X[3] <= 299.0\ngini = 0.07\nsamples = 16\nvalue = [0, 0, 0, 0, 0, 26, 1, 0, 0, 0, 0, 0, 0, 0\n0, 0, 0, 0, 0, 0, 0, 0]", fillcolor="#67e641"] ;
246 -> 247 ;
248 [label="X[3] <= 289.5\ngini = 0.28\nsamples = 5\nvalue = [0, 0, 0, 0, 0, 5, 1, 0, 0, 0, 0, 0, 0, 0\n0, 0, 0, 0, 0, 0, 0, 0]", fillcolor="#81ea61"] ;
247 -> 248 ;
249 [label="gini = 0.0\nsamples = 4\nvalue = [0, 0, 0, 0, 0, 5, 0, 0, 0, 0, 0, 0, 0, 0\n0, 0, 0, 0, 0, 0, 0, 0]", fillcolor="#61e539"] ;
248 -> 249 ;
250 [label="gini = 0.0\nsamples = 1\nvalue = [0, 0, 0, 0, 0, 0, 1, 0, 0, 0, 0, 0, 0, 0\n0, 0, 0, 0, 0, 0, 0, 0]", fillcolor="#39e541"] ;
248 -> 250 ;
251 [label="gini = 0.0\nsamples = 11\nvalue = [0, 0, 0, 0, 0, 21, 0, 0, 0, 0, 0, 0, 0, 0\n0, 0, 0, 0, 0, 0, 0, 0]", fillcolor="#61e539"] ;
247 -> 251 ;
252 [label="X[3] <= 347.0\ngini = 0.53\nsamples = 13\nvalue = [0, 0, 0, 0, 0, 11, 8, 0, 0, 0, 0, 0, 0, 0\n0, 0, 0, 0, 0, 1, 0, 0]", fillcolor="#d8f8ce"] ;
246 -> 252 ;
253 [label="X[3] <= 276.0\ngini = 0.54\nsamples = 10\nvalue = [0, 0, 0, 0, 0, 4, 7, 0, 0, 0, 0, 0, 0, 0\n0, 0, 0, 0, 0, 1, 0, 0]", fillcolor="#b5f5b8"] ;
252 -> 253 ;
254 [label="X[3] <= 273.5\ngini = 0.38\nsamples = 3\nvalue = [0, 0, 0, 0, 0, 3, 1, 0, 0, 0, 0, 0, 0, 0\n0, 0, 0, 0, 0, 0, 0, 0]", fillcolor="#96ee7b"] ;
253 -> 254 ;
255 [label="gini = 0.0\nsamples = 1\nvalue = [0, 0, 0, 0, 0, 0, 1, 0, 0, 0, 0, 0, 0, 0\n0, 0, 0, 0, 0, 0, 0, 0]", fillcolor="#39e541"] ;
254 -> 255 ;
256 [label="gini = 0.0\nsamples = 2\nvalue = [0, 0, 0, 0, 0, 3, 0, 0, 0, 0, 0, 0, 0, 0\n0, 0, 0, 0, 0, 0, 0, 0]", fillcolor="#61e539"] ;
254 -> 256 ;
257 [label="X[4] <= 795.0\ngini = 0.41\nsamples = 7\nvalue = [0, 0, 0, 0, 0, 1, 6, 0, 0, 0, 0, 0, 0, 0\n0, 0, 0, 0, 0, 1, 0, 0]", fillcolor="#72ec77"] ;
253 -> 257 ;
258 [label="X[3] <= 290.0\ngini = 0.24\nsamples = 6\nvalue = [0, 0, 0, 0, 0, 0, 6, 0, 0, 0, 0, 0, 0, 0\n0, 0, 0, 0, 0, 1, 0, 0]", fillcolor="#5ae961"] ;
257 -> 258 ;
259 [label="gini = 0.0\nsamples = 2\nvalue = [0, 0, 0, 0, 0, 0, 3, 0, 0, 0, 0, 0, 0, 0\n0, 0, 0, 0, 0, 0, 0, 0]", fillcolor="#39e541"] ;
258 -> 259 ;
260 [label="X[3] <= 303.0\ngini = 0.38\nsamples = 4\nvalue = [0, 0, 0, 0, 0, 0, 3, 0, 0, 0, 0, 0, 0, 0\n0, 0, 0, 0, 0, 1, 0, 0]", fillcolor="#7bee80"] ;
258 -> 260 ;
261 [label="gini = 0.0\nsamples = 1\nvalue = [0, 0, 0, 0, 0, 0, 0, 0, 0, 0, 0, 0, 0, 0\n0, 0, 0, 0, 0, 1, 0, 0]", fillcolor="#e53981"] ;
260 -> 261 ;
262 [label="gini = 0.0\nsamples = 3\nvalue = [0, 0, 0, 0, 0, 0, 3, 0, 0, 0, 0, 0, 0, 0\n0, 0, 0, 0, 0, 0, 0, 0]", fillcolor="#39e541"] ;
260 -> 262 ;
263 [label="gini = 0.0\nsamples = 1\nvalue = [0, 0, 0, 0, 0, 1, 0, 0, 0, 0, 0, 0, 0, 0\n0, 0, 0, 0, 0, 0, 0, 0]", fillcolor="#61e539"] ;
257 -> 263 ;
264 [label="X[3] <= 365.5\ngini = 0.22\nsamples = 3\nvalue = [0, 0, 0, 0, 0, 7, 1, 0, 0, 0, 0, 0, 0, 0\n0, 0, 0, 0, 0, 0, 0, 0]", fillcolor="#78e955"] ;
252 -> 264 ;
265 [label="X[3] <= 357.0\ngini = 0.44\nsamples = 2\nvalue = [0, 0, 0, 0, 0, 2, 1, 0, 0, 0, 0, 0, 0, 0\n0, 0, 0, 0, 0, 0, 0, 0]", fillcolor="#b0f29c"] ;
264 -> 265 ;
266 [label="gini = 0.0\nsamples = 1\nvalue = [0, 0, 0, 0, 0, 2, 0, 0, 0, 0, 0, 0, 0, 0\n0, 0, 0, 0, 0, 0, 0, 0]", fillcolor="#61e539"] ;
265 -> 266 ;
267 [label="gini = 0.0\nsamples = 1\nvalue = [0, 0, 0, 0, 0, 0, 1, 0, 0, 0, 0, 0, 0, 0\n0, 0, 0, 0, 0, 0, 0, 0]", fillcolor="#39e541"] ;
265 -> 267 ;
268 [label="gini = 0.0\nsamples = 1\nvalue = [0, 0, 0, 0, 0, 5, 0, 0, 0, 0, 0, 0, 0, 0\n0, 0, 0, 0, 0, 0, 0, 0]", fillcolor="#61e539"] ;
264 -> 268 ;
269 [label="X[4] <= 727.0\ngini = 0.32\nsamples = 5\nvalue = [0, 0, 0, 0, 0, 0, 4, 0, 0, 0, 0, 0, 0, 0\n0, 0, 0, 0, 0, 1, 0, 0]", fillcolor="#6aec70"] ;
245 -> 269 ;
270 [label="gini = 0.0\nsamples = 4\nvalue = [0, 0, 0, 0, 0, 0, 4, 0, 0, 0, 0, 0, 0, 0\n0, 0, 0, 0, 0, 0, 0, 0]", fillcolor="#39e541"] ;
269 -> 270 ;
271 [label="gini = 0.0\nsamples = 1\nvalue = [0, 0, 0, 0, 0, 0, 0, 0, 0, 0, 0, 0, 0, 0\n0, 0, 0, 0, 0, 1, 0, 0]", fillcolor="#e53981"] ;
269 -> 271 ;
272 [label="X[3] <= 252.5\ngini = 0.06\nsamples = 118\nvalue = [0, 0, 0, 0, 0, 179, 1, 0, 0, 0, 0, 0, 0, 0\n0, 0, 0, 0, 0, 5, 0, 0]", fillcolor="#66e640"] ;
236 -> 272 ;
273 [label="gini = 0.0\nsamples = 38\nvalue = [0, 0, 0, 0, 0, 60, 0, 0, 0, 0, 0, 0, 0, 0\n0, 0, 0, 0, 0, 0, 0, 0]", fillcolor="#61e539"] ;
272 -> 273 ;
274 [label="X[3] <= 272.5\ngini = 0.09\nsamples = 80\nvalue = [0, 0, 0, 0, 0, 119, 1, 0, 0, 0, 0, 0, 0, 0\n0, 0, 0, 0, 0, 5, 0, 0]", fillcolor="#69e643"] ;
272 -> 274 ;
275 [label="X[0] <= 130.0\ngini = 0.35\nsamples = 12\nvalue = [0, 0, 0, 0, 0, 14, 0, 0, 0, 0, 0, 0, 0, 0\n0, 0, 0, 0, 0, 4, 0, 0]", fillcolor="#8eec72"] ;
274 -> 275 ;
276 [label="gini = 0.0\nsamples = 2\nvalue = [0, 0, 0, 0, 0, 0, 0, 0, 0, 0, 0, 0, 0, 0\n0, 0, 0, 0, 0, 2, 0, 0]", fillcolor="#e53981"] ;
275 -> 276 ;
277 [label="X[4] <= 330.0\ngini = 0.22\nsamples = 10\nvalue = [0, 0, 0, 0, 0, 14, 0, 0, 0, 0, 0, 0, 0, 0\n0, 0, 0, 0, 0, 2, 0, 0]", fillcolor="#78e955"] ;
275 -> 277 ;
278 [label="X[4] <= 271.5\ngini = 0.41\nsamples = 5\nvalue = [0, 0, 0, 0, 0, 5, 0, 0, 0, 0, 0, 0, 0, 0\n0, 0, 0, 0, 0, 2, 0, 0]", fillcolor="#a0ef88"] ;
277 -> 278 ;
279 [label="gini = 0.0\nsamples = 4\nvalue = [0, 0, 0, 0, 0, 5, 0, 0, 0, 0, 0, 0, 0, 0\n0, 0, 0, 0, 0, 0, 0, 0]", fillcolor="#61e539"] ;
278 -> 279 ;
280 [label="gini = 0.0\nsamples = 1\nvalue = [0, 0, 0, 0, 0, 0, 0, 0, 0, 0, 0, 0, 0, 0\n0, 0, 0, 0, 0, 2, 0, 0]", fillcolor="#e53981"] ;
278 -> 280 ;
281 [label="gini = 0.0\nsamples = 5\nvalue = [0, 0, 0, 0, 0, 9, 0, 0, 0, 0, 0, 0, 0, 0\n0, 0, 0, 0, 0, 0, 0, 0]", fillcolor="#61e539"] ;
277 -> 281 ;
282 [label="X[4] <= 106.5\ngini = 0.04\nsamples = 68\nvalue = [0, 0, 0, 0, 0, 105, 1, 0, 0, 0, 0, 0, 0, 0\n0, 0, 0, 0, 0, 1, 0, 0]", fillcolor="#64e53d"] ;
274 -> 282 ;
283 [label="X[4] <= 95.0\ngini = 0.5\nsamples = 2\nvalue = [0, 0, 0, 0, 0, 1, 1, 0, 0, 0, 0, 0, 0, 0\n0, 0, 0, 0, 0, 0, 0, 0]", fillcolor="#ffffff"] ;
282 -> 283 ;
284 [label="gini = 0.0\nsamples = 1\nvalue = [0, 0, 0, 0, 0, 1, 0, 0, 0, 0, 0, 0, 0, 0\n0, 0, 0, 0, 0, 0, 0, 0]", fillcolor="#61e539"] ;
283 -> 284 ;
285 [label="gini = 0.0\nsamples = 1\nvalue = [0, 0, 0, 0, 0, 0, 1, 0, 0, 0, 0, 0, 0, 0\n0, 0, 0, 0, 0, 0, 0, 0]", fillcolor="#39e541"] ;
283 -> 285 ;
286 [label="X[3] <= 358.0\ngini = 0.02\nsamples = 66\nvalue = [0, 0, 0, 0, 0, 104, 0, 0, 0, 0, 0, 0, 0, 0\n0, 0, 0, 0, 0, 1, 0, 0]", fillcolor="#63e53b"] ;
282 -> 286 ;
287 [label="gini = 0.0\nsamples = 43\nvalue = [0, 0, 0, 0, 0, 62, 0, 0, 0, 0, 0, 0, 0, 0\n0, 0, 0, 0, 0, 0, 0, 0]", fillcolor="#61e539"] ;
286 -> 287 ;
288 [label="X[3] <= 367.0\ngini = 0.05\nsamples = 23\nvalue = [0, 0, 0, 0, 0, 42, 0, 0, 0, 0, 0, 0, 0, 0\n0, 0, 0, 0, 0, 1, 0, 0]", fillcolor="#65e63e"] ;
286 -> 288 ;
289 [label="gini = 0.0\nsamples = 1\nvalue = [0, 0, 0, 0, 0, 0, 0, 0, 0, 0, 0, 0, 0, 0\n0, 0, 0, 0, 0, 1, 0, 0]", fillcolor="#e53981"] ;
288 -> 289 ;
290 [label="gini = 0.0\nsamples = 22\nvalue = [0, 0, 0, 0, 0, 42, 0, 0, 0, 0, 0, 0, 0, 0\n0, 0, 0, 0, 0, 0, 0, 0]", fillcolor="#61e539"] ;
288 -> 290 ;
291 [label="X[4] <= 430.0\ngini = 0.44\nsamples = 3\nvalue = [0, 0, 0, 0, 0, 0, 1, 0, 0, 0, 0, 0, 0, 0\n0, 0, 0, 0, 0, 2, 0, 0]", fillcolor="#f29cc0"] ;
235 -> 291 ;
292 [label="gini = 0.0\nsamples = 1\nvalue = [0, 0, 0, 0, 0, 0, 1, 0, 0, 0, 0, 0, 0, 0\n0, 0, 0, 0, 0, 0, 0, 0]", fillcolor="#39e541"] ;
291 -> 292 ;
293 [label="gini = 0.0\nsamples = 2\nvalue = [0, 0, 0, 0, 0, 0, 0, 0, 0, 0, 0, 0, 0, 0\n0, 0, 0, 0, 0, 2, 0, 0]", fillcolor="#e53981"] ;
291 -> 293 ;
294 [label="X[0] <= 166.0\ngini = 0.51\nsamples = 12\nvalue = [0, 0, 0, 0, 0, 17, 3, 0, 0, 0, 0, 0, 0, 0\n0, 0, 0, 0, 0, 6, 0, 0]", fillcolor="#a8f192"] ;
228 -> 294 ;
295 [label="gini = 0.48\nsamples = 2\nvalue = [0, 0, 0, 0, 0, 0, 3, 0, 0, 0, 0, 0, 0, 0\n0, 0, 0, 0, 0, 2, 0, 0]", fillcolor="#bdf6c0"] ;
294 -> 295 ;
296 [label="X[4] <= 487.0\ngini = 0.31\nsamples = 10\nvalue = [0, 0, 0, 0, 0, 17, 0, 0, 0, 0, 0, 0, 0, 0\n0, 0, 0, 0, 0, 4, 0, 0]", fillcolor="#86eb68"] ;
294 -> 296 ;
297 [label="gini = 0.0\nsamples = 6\nvalue = [0, 0, 0, 0, 0, 14, 0, 0, 0, 0, 0, 0, 0, 0\n0, 0, 0, 0, 0, 0, 0, 0]", fillcolor="#61e539"] ;
296 -> 297 ;
298 [label="X[4] <= 735.0\ngini = 0.49\nsamples = 4\nvalue = [0, 0, 0, 0, 0, 3, 0, 0, 0, 0, 0, 0, 0, 0\n0, 0, 0, 0, 0, 4, 0, 0]", fillcolor="#f8cee0"] ;
296 -> 298 ;
299 [label="gini = 0.0\nsamples = 2\nvalue = [0, 0, 0, 0, 0, 0, 0, 0, 0, 0, 0, 0, 0, 0\n0, 0, 0, 0, 0, 4, 0, 0]", fillcolor="#e53981"] ;
298 -> 299 ;
300 [label="gini = 0.0\nsamples = 2\nvalue = [0, 0, 0, 0, 0, 3, 0, 0, 0, 0, 0, 0, 0, 0\n0, 0, 0, 0, 0, 0, 0, 0]", fillcolor="#61e539"] ;
298 -> 300 ;
301 [label="X[1] <= 45.0\ngini = 0.01\nsamples = 2040\nvalue = [0, 0, 0, 0, 0, 18, 1, 0, 0, 0, 0, 0, 0, 0\n0, 0, 0, 0, 0, 3259, 0, 0]", fillcolor="#e53a82"] ;
167 -> 301 ;
302 [label="gini = 0.0\nsamples = 49\nvalue = [0, 0, 0, 0, 0, 0, 0, 0, 0, 0, 0, 0, 0, 0\n0, 0, 0, 0, 0, 79, 0, 0]", fillcolor="#e53981"] ;
301 -> 302 ;
303 [label="X[0] <= 131.0\ngini = 0.01\nsamples = 1991\nvalue = [0, 0, 0, 0, 0, 18, 1, 0, 0, 0, 0, 0, 0, 0\n0, 0, 0, 0, 0, 3180, 0, 0]", fillcolor="#e53a82"] ;
301 -> 303 ;
304 [label="X[0] <= 116.5\ngini = 0.0\nsamples = 1950\nvalue = [0, 0, 0, 0, 0, 6, 1, 0, 0, 0, 0, 0, 0, 0\n0, 0, 0, 0, 0, 3128, 0, 0]", fillcolor="#e53981"] ;
303 -> 304 ;
305 [label="X[4] <= 855.0\ngini = 0.01\nsamples = 685\nvalue = [0, 0, 0, 0, 0, 6, 0, 0, 0, 0, 0, 0, 0, 0\n0, 0, 0, 0, 0, 1109, 0, 0]", fillcolor="#e53a82"] ;
304 -> 305 ;
306 [label="X[3] <= 341.5\ngini = 0.27\nsamples = 14\nvalue = [0, 0, 0, 0, 0, 4, 0, 0, 0, 0, 0, 0, 0, 0\n0, 0, 0, 0, 0, 21, 0, 0]", fillcolor="#ea5f99"] ;
305 -> 306 ;
307 [label="X[0] <= 95.5\ngini = 0.09\nsamples = 12\nvalue = [0, 0, 0, 0, 0, 1, 0, 0, 0, 0, 0, 0, 0, 0\n0, 0, 0, 0, 0, 21, 0, 0]", fillcolor="#e64287"] ;
306 -> 307 ;
308 [label="gini = 0.0\nsamples = 11\nvalue = [0, 0, 0, 0, 0, 0, 0, 0, 0, 0, 0, 0, 0, 0\n0, 0, 0, 0, 0, 21, 0, 0]", fillcolor="#e53981"] ;
307 -> 308 ;
309 [label="gini = 0.0\nsamples = 1\nvalue = [0, 0, 0, 0, 0, 1, 0, 0, 0, 0, 0, 0, 0, 0\n0, 0, 0, 0, 0, 0, 0, 0]", fillcolor="#61e539"] ;
307 -> 309 ;
310 [label="gini = 0.0\nsamples = 2\nvalue = [0, 0, 0, 0, 0, 3, 0, 0, 0, 0, 0, 0, 0, 0\n0, 0, 0, 0, 0, 0, 0, 0]", fillcolor="#61e539"] ;
306 -> 310 ;
311 [label="X[3] <= 246.5\ngini = 0.0\nsamples = 671\nvalue = [0, 0, 0, 0, 0, 2, 0, 0, 0, 0, 0, 0, 0, 0\n0, 0, 0, 0, 0, 1088, 0, 0]", fillcolor="#e53981"] ;
305 -> 311 ;
312 [label="X[3] <= 241.5\ngini = 0.14\nsamples = 18\nvalue = [0, 0, 0, 0, 0, 2, 0, 0, 0, 0, 0, 0, 0, 0\n0, 0, 0, 0, 0, 24, 0, 0]", fillcolor="#e7498c"] ;
311 -> 312 ;
313 [label="gini = 0.0\nsamples = 17\nvalue = [0, 0, 0, 0, 0, 0, 0, 0, 0, 0, 0, 0, 0, 0\n0, 0, 0, 0, 0, 24, 0, 0]", fillcolor="#e53981"] ;
312 -> 313 ;
314 [label="gini = 0.0\nsamples = 1\nvalue = [0, 0, 0, 0, 0, 2, 0, 0, 0, 0, 0, 0, 0, 0\n0, 0, 0, 0, 0, 0, 0, 0]", fillcolor="#61e539"] ;
312 -> 314 ;
315 [label="gini = 0.0\nsamples = 653\nvalue = [0, 0, 0, 0, 0, 0, 0, 0, 0, 0, 0, 0, 0, 0\n0, 0, 0, 0, 0, 1064, 0, 0]", fillcolor="#e53981"] ;
311 -> 315 ;
316 [label="X[4] <= 837.5\ngini = 0.0\nsamples = 1265\nvalue = [0, 0, 0, 0, 0, 0, 1, 0, 0, 0, 0, 0, 0, 0\n0, 0, 0, 0, 0, 2019, 0, 0]", fillcolor="#e53981"] ;
304 -> 316 ;
317 [label="X[4] <= 835.0\ngini = 0.44\nsamples = 3\nvalue = [0, 0, 0, 0, 0, 0, 1, 0, 0, 0, 0, 0, 0, 0\n0, 0, 0, 0, 0, 2, 0, 0]", fillcolor="#f29cc0"] ;
316 -> 317 ;
318 [label="gini = 0.0\nsamples = 2\nvalue = [0, 0, 0, 0, 0, 0, 0, 0, 0, 0, 0, 0, 0, 0\n0, 0, 0, 0, 0, 2, 0, 0]", fillcolor="#e53981"] ;
317 -> 318 ;
319 [label="gini = 0.0\nsamples = 1\nvalue = [0, 0, 0, 0, 0, 0, 1, 0, 0, 0, 0, 0, 0, 0\n0, 0, 0, 0, 0, 0, 0, 0]", fillcolor="#39e541"] ;
317 -> 319 ;
320 [label="gini = 0.0\nsamples = 1262\nvalue = [0, 0, 0, 0, 0, 0, 0, 0, 0, 0, 0, 0, 0, 0\n0, 0, 0, 0, 0, 2017, 0, 0]", fillcolor="#e53981"] ;
316 -> 320 ;
321 [label="X[3] <= 224.5\ngini = 0.3\nsamples = 41\nvalue = [0, 0, 0, 0, 0, 12, 0, 0, 0, 0, 0, 0, 0, 0\n0, 0, 0, 0, 0, 52, 0, 0]", fillcolor="#eb679e"] ;
303 -> 321 ;
322 [label="gini = 0.0\nsamples = 8\nvalue = [0, 0, 0, 0, 0, 12, 0, 0, 0, 0, 0, 0, 0, 0\n0, 0, 0, 0, 0, 0, 0, 0]", fillcolor="#61e539"] ;
321 -> 322 ;
323 [label="gini = 0.0\nsamples = 33\nvalue = [0, 0, 0, 0, 0, 0, 0, 0, 0, 0, 0, 0, 0, 0\n0, 0, 0, 0, 0, 52, 0, 0]", fillcolor="#e53981"] ;
321 -> 323 ;
324 [label="X[4] <= 692.5\ngini = 0.7\nsamples = 2399\nvalue = [0, 3, 10, 0, 30, 594, 19, 0, 0, 75, 0, 14, 0\n0, 8, 11, 49, 14, 38, 1157, 1633, 189]", fillcolor="#fadce0"] ;
166 -> 324 ;
325 [label="X[1] <= 70.5\ngini = 0.73\nsamples = 1323\nvalue = [0, 3, 10, 0, 30, 539, 19, 0, 0, 69, 0, 14, 0\n0, 8, 11, 49, 14, 35, 209, 907, 189]", fillcolor="#f9d1d6"] ;
324 -> 325 ;
326 [label="X[0] <= 71.0\ngini = 0.6\nsamples = 813\nvalue = [0, 3, 5, 0, 30, 36, 14, 0, 0, 52, 0, 12, 0\n0, 8, 11, 23, 13, 13, 185, 783, 95]", fillcolor="#f193a0"] ;
325 -> 326 ;
327 [label="X[1] <= 28.0\ngini = 0.47\nsamples = 477\nvalue = [0, 3, 5, 0, 30, 24, 0, 0, 0, 0, 0, 12, 0, 0\n8, 11, 23, 13, 0, 27, 536, 54]", fillcolor="#ed7585"] ;
326 -> 327 ;
328 [label="X[3] <= 2.5\ngini = 0.83\nsamples = 69\nvalue = [0, 3, 0, 0, 27, 10, 0, 0, 0, 0, 0, 0, 0, 0\n0, 0, 23, 13, 0, 3, 10, 17]", fillcolor="#fafef5"] ;
327 -> 328 ;
329 [label="gini = 0.0\nsamples = 17\nvalue = [0, 0, 0, 0, 27, 0, 0, 0, 0, 0, 0, 0, 0, 0\n0, 0, 0, 0, 0, 0, 0, 0]", fillcolor="#8fe539"] ;
328 -> 329 ;
330 [label="X[1] <= 1.5\ngini = 0.81\nsamples = 52\nvalue = [0, 3, 0, 0, 0, 10, 0, 0, 0, 0, 0, 0, 0, 0\n0, 0, 23, 13, 0, 3, 10, 17]", fillcolor="#f9ecfc"] ;
328 -> 330 ;
331 [label="X[0] <= 26.0\ngini = 0.26\nsamples = 17\nvalue = [0, 0, 0, 0, 0, 1, 0, 0, 0, 0, 0, 0, 0, 0\n0, 0, 23, 0, 0, 3, 0, 0]", fillcolor="#c85ae9"] ;
330 -> 331 ;
332 [label="gini = 0.0\nsamples = 14\nvalue = [0, 0, 0, 0, 0, 0, 0, 0, 0, 0, 0, 0, 0, 0\n0, 0, 23, 0, 0, 0, 0, 0]", fillcolor="#bd39e5"] ;
331 -> 332 ;
333 [label="X[4] <= 103.0\ngini = 0.38\nsamples = 3\nvalue = [0, 0, 0, 0, 0, 1, 0, 0, 0, 0, 0, 0, 0, 0\n0, 0, 0, 0, 0, 3, 0, 0]", fillcolor="#ee7bab"] ;
331 -> 333 ;
334 [label="gini = 0.0\nsamples = 2\nvalue = [0, 0, 0, 0, 0, 0, 0, 0, 0, 0, 0, 0, 0, 0\n0, 0, 0, 0, 0, 3, 0, 0]", fillcolor="#e53981"] ;
333 -> 334 ;
335 [label="gini = 0.0\nsamples = 1\nvalue = [0, 0, 0, 0, 0, 1, 0, 0, 0, 0, 0, 0, 0, 0\n0, 0, 0, 0, 0, 0, 0, 0]", fillcolor="#61e539"] ;
333 -> 335 ;
336 [label="X[4] <= 24.5\ngini = 0.76\nsamples = 35\nvalue = [0, 3, 0, 0, 0, 9, 0, 0, 0, 0, 0, 0, 0, 0\n0, 0, 0, 13, 0, 0, 10, 17]", fillcolor="#fcedeb"] ;
330 -> 336 ;
337 [label="gini = 0.0\nsamples = 8\nvalue = [0, 0, 0, 0, 0, 0, 0, 0, 0, 0, 0, 0, 0, 0\n0, 0, 0, 0, 0, 0, 0, 10]", fillcolor="#e55039"] ;
336 -> 337 ;
338 [label="X[3] <= 5.0\ngini = 0.77\nsamples = 27\nvalue = [0, 3, 0, 0, 0, 9, 0, 0, 0, 0, 0, 0, 0, 0\n0, 0, 0, 13, 0, 0, 10, 7]", fillcolor="#fdecfc"] ;
336 -> 338 ;
339 [label="gini = 0.0\nsamples = 6\nvalue = [0, 0, 0, 0, 0, 9, 0, 0, 0, 0, 0, 0, 0, 0\n0, 0, 0, 0, 0, 0, 0, 0]", fillcolor="#61e539"] ;
338 -> 339 ;
340 [label="X[4] <= 62.5\ngini = 0.7\nsamples = 21\nvalue = [0, 3, 0, 0, 0, 0, 0, 0, 0, 0, 0, 0, 0, 0\n0, 0, 0, 13, 0, 0, 10, 7]", fillcolor="#fce5fa"] ;
338 -> 340 ;
341 [label="gini = 0.0\nsamples = 6\nvalue = [0, 0, 0, 0, 0, 0, 0, 0, 0, 0, 0, 0, 0, 0\n0, 0, 0, 0, 0, 0, 9, 0]", fillcolor="#e53950"] ;
340 -> 341 ;
342 [label="X[2] <= 163.0\ngini = 0.6\nsamples = 15\nvalue = [0, 3, 0, 0, 0, 0, 0, 0, 0, 0, 0, 0, 0, 0\n0, 0, 0, 13, 0, 0, 1, 7]", fillcolor="#f6b9f3"] ;
340 -> 342 ;
343 [label="X[2] <= 86.0\ngini = 0.38\nsamples = 10\nvalue = [0, 3, 0, 0, 0, 0, 0, 0, 0, 0, 0, 0, 0, 0\n0, 0, 0, 13, 0, 0, 1, 0]", fillcolor="#ec72e6"] ;
342 -> 343 ;
344 [label="X[1] <= 13.0\ngini = 0.38\nsamples = 2\nvalue = [0, 3, 0, 0, 0, 0, 0, 0, 0, 0, 0, 0, 0, 0\n0, 0, 0, 0, 0, 0, 1, 0]", fillcolor="#eec97b"] ;
343 -> 344 ;
345 [label="gini = 0.0\nsamples = 1\nvalue = [0, 3, 0, 0, 0, 0, 0, 0, 0, 0, 0, 0, 0, 0\n0, 0, 0, 0, 0, 0, 0, 0]", fillcolor="#e5ae39"] ;
344 -> 345 ;
346 [label="gini = 0.0\nsamples = 1\nvalue = [0, 0, 0, 0, 0, 0, 0, 0, 0, 0, 0, 0, 0, 0\n0, 0, 0, 0, 0, 0, 1, 0]", fillcolor="#e53950"] ;
344 -> 346 ;
347 [label="gini = 0.0\nsamples = 8\nvalue = [0, 0, 0, 0, 0, 0, 0, 0, 0, 0, 0, 0, 0, 0\n0, 0, 0, 13, 0, 0, 0, 0]", fillcolor="#e539dc"] ;
343 -> 347 ;
348 [label="gini = 0.0\nsamples = 5\nvalue = [0, 0, 0, 0, 0, 0, 0, 0, 0, 0, 0, 0, 0, 0\n0, 0, 0, 0, 0, 0, 0, 7]", fillcolor="#e55039"] ;
342 -> 348 ;
349 [label="X[2] <= 8.5\ngini = 0.32\nsamples = 408\nvalue = [0, 0, 5, 0, 3, 14, 0, 0, 0, 0, 0, 12, 0, 0\n8, 11, 0, 0, 0, 24, 526, 37]", fillcolor="#ea5e71"] ;
327 -> 349 ;
350 [label="X[4] <= 49.5\ngini = 0.32\nsamples = 11\nvalue = [0, 0, 0, 0, 0, 0, 0, 0, 0, 0, 0, 12, 0, 0\n0, 3, 0, 0, 0, 0, 0, 0]", fillcolor="#6ab8ec"] ;
349 -> 350 ;
351 [label="gini = 0.0\nsamples = 8\nvalue = [0, 0, 0, 0, 0, 0, 0, 0, 0, 0, 0, 12, 0, 0\n0, 0, 0, 0, 0, 0, 0, 0]", fillcolor="#39a0e5"] ;
350 -> 351 ;
352 [label="gini = 0.0\nsamples = 3\nvalue = [0, 0, 0, 0, 0, 0, 0, 0, 0, 0, 0, 0, 0, 0\n0, 3, 0, 0, 0, 0, 0, 0]", fillcolor="#8f39e5"] ;
350 -> 352 ;
353 [label="X[3] <= 8.5\ngini = 0.29\nsamples = 397\nvalue = [0, 0, 5, 0, 3, 14, 0, 0, 0, 0, 0, 0, 0, 0\n8, 8, 0, 0, 0, 24, 526, 37]", fillcolor="#e95a6d"] ;
349 -> 353 ;
354 [label="X[1] <= 62.5\ngini = 0.73\nsamples = 17\nvalue = [0, 0, 0, 0, 3, 7, 0, 0, 0, 0, 0, 0, 0, 0\n1, 8, 0, 0, 0, 3, 0, 0]", fillcolor="#f8f2fd"] ;
353 -> 354 ;
355 [label="X[3] <= 7.5\ngini = 0.7\nsamples = 12\nvalue = [0, 0, 0, 0, 3, 2, 0, 0, 0, 0, 0, 0, 0, 0\n1, 8, 0, 0, 0, 3, 0, 0]", fillcolor="#d7b8f6"] ;
354 -> 355 ;
356 [label="X[3] <= 2.5\ngini = 0.72\nsamples = 6\nvalue = [0, 0, 0, 0, 3, 2, 0, 0, 0, 0, 0, 0, 0, 0\n1, 0, 0, 0, 0, 3, 0, 0]", fillcolor="#ffffff"] ;
355 -> 356 ;
357 [label="gini = 0.0\nsamples = 2\nvalue = [0, 0, 0, 0, 3, 0, 0, 0, 0, 0, 0, 0, 0, 0\n0, 0, 0, 0, 0, 0, 0, 0]", fillcolor="#8fe539"] ;
356 -> 357 ;
358 [label="X[2] <= 101.5\ngini = 0.61\nsamples = 4\nvalue = [0, 0, 0, 0, 0, 2, 0, 0, 0, 0, 0, 0, 0, 0\n1, 0, 0, 0, 0, 3, 0, 0]", fillcolor="#f8cee0"] ;
356 -> 358 ;
359 [label="gini = 0.38\nsamples = 2\nvalue = [0, 0, 0, 0, 0, 0, 0, 0, 0, 0, 0, 0, 0, 0\n1, 0, 0, 0, 0, 3, 0, 0]", fillcolor="#ee7bab"] ;
358 -> 359 ;
360 [label="gini = 0.0\nsamples = 2\nvalue = [0, 0, 0, 0, 0, 2, 0, 0, 0, 0, 0, 0, 0, 0\n0, 0, 0, 0, 0, 0, 0, 0]", fillcolor="#61e539"] ;
358 -> 360 ;
361 [label="gini = 0.0\nsamples = 6\nvalue = [0, 0, 0, 0, 0, 0, 0, 0, 0, 0, 0, 0, 0, 0\n0, 8, 0, 0, 0, 0, 0, 0]", fillcolor="#8f39e5"] ;
355 -> 361 ;
362 [label="gini = 0.0\nsamples = 5\nvalue = [0, 0, 0, 0, 0, 5, 0, 0, 0, 0, 0, 0, 0, 0\n0, 0, 0, 0, 0, 0, 0, 0]", fillcolor="#61e539"] ;
354 -> 362 ;
363 [label="X[3] <= 112.0\ngini = 0.23\nsamples = 380\nvalue = [0, 0, 5, 0, 0, 7, 0, 0, 0, 0, 0, 0, 0, 0\n7, 0, 0, 0, 0, 21, 526, 37]", fillcolor="#e95468"] ;
353 -> 363 ;
364 [label="X[0] <= 1.5\ngini = 0.12\nsamples = 254\nvalue = [0, 0, 0, 0, 0, 7, 0, 0, 0, 0, 0, 0, 0, 0\n5, 0, 0, 0, 0, 11, 374, 2]", fillcolor="#e7465b"] ;
363 -> 364 ;
365 [label="gini = 0.0\nsamples = 1\nvalue = [0, 0, 0, 0, 0, 4, 0, 0, 0, 0, 0, 0, 0, 0\n0, 0, 0, 0, 0, 0, 0, 0]", fillcolor="#61e539"] ;
364 -> 365 ;
366 [label="X[0] <= 24.5\ngini = 0.1\nsamples = 253\nvalue = [0, 0, 0, 0, 0, 3, 0, 0, 0, 0, 0, 0, 0, 0\n5, 0, 0, 0, 0, 11, 374, 2]", fillcolor="#e6445a"] ;
364 -> 366 ;
367 [label="X[0] <= 7.5\ngini = 0.27\nsamples = 25\nvalue = [0, 0, 0, 0, 0, 0, 0, 0, 0, 0, 0, 0, 0, 0\n0, 0, 0, 0, 0, 6, 31, 0]", fillcolor="#ea5f72"] ;
366 -> 367 ;
368 [label="gini = 0.0\nsamples = 15\nvalue = [0, 0, 0, 0, 0, 0, 0, 0, 0, 0, 0, 0, 0, 0\n0, 0, 0, 0, 0, 0, 23, 0]", fillcolor="#e53950"] ;
367 -> 368 ;
369 [label="X[0] <= 15.0\ngini = 0.49\nsamples = 10\nvalue = [0, 0, 0, 0, 0, 0, 0, 0, 0, 0, 0, 0, 0, 0\n0, 0, 0, 0, 0, 6, 8, 0]", fillcolor="#f8ced3"] ;
367 -> 369 ;
370 [label="X[4] <= 34.0\ngini = 0.38\nsamples = 3\nvalue = [0, 0, 0, 0, 0, 0, 0, 0, 0, 0, 0, 0, 0, 0\n0, 0, 0, 0, 0, 1, 3, 0]", fillcolor="#ee7b8a"] ;
369 -> 370 ;
371 [label="gini = 0.0\nsamples = 1\nvalue = [0, 0, 0, 0, 0, 0, 0, 0, 0, 0, 0, 0, 0, 0\n0, 0, 0, 0, 0, 1, 0, 0]", fillcolor="#e53981"] ;
370 -> 371 ;
372 [label="gini = 0.0\nsamples = 2\nvalue = [0, 0, 0, 0, 0, 0, 0, 0, 0, 0, 0, 0, 0, 0\n0, 0, 0, 0, 0, 0, 3, 0]", fillcolor="#e53950"] ;
370 -> 372 ;
373 [label="X[4] <= 322.0\ngini = 0.5\nsamples = 7\nvalue = [0, 0, 0, 0, 0, 0, 0, 0, 0, 0, 0, 0, 0, 0\n0, 0, 0, 0, 0, 5, 5, 0]", fillcolor="#ffffff"] ;
369 -> 373 ;
374 [label="gini = 0.0\nsamples = 2\nvalue = [0, 0, 0, 0, 0, 0, 0, 0, 0, 0, 0, 0, 0, 0\n0, 0, 0, 0, 0, 0, 5, 0]", fillcolor="#e53950"] ;
373 -> 374 ;
375 [label="gini = 0.0\nsamples = 5\nvalue = [0, 0, 0, 0, 0, 0, 0, 0, 0, 0, 0, 0, 0, 0\n0, 0, 0, 0, 0, 5, 0, 0]", fillcolor="#e53981"] ;
373 -> 375 ;
376 [label="X[3] <= 51.0\ngini = 0.08\nsamples = 228\nvalue = [0, 0, 0, 0, 0, 3, 0, 0, 0, 0, 0, 0, 0, 0\n5, 0, 0, 0, 0, 5, 343, 2]", fillcolor="#e64157"] ;
366 -> 376 ;
377 [label="X[3] <= 9.5\ngini = 0.16\nsamples = 104\nvalue = [0, 0, 0, 0, 0, 3, 0, 0, 0, 0, 0, 0, 0, 0\n5, 0, 0, 0, 0, 5, 159, 2]", fillcolor="#e74b60"] ;
376 -> 377 ;
378 [label="X[4] <= 287.5\ngini = 0.04\nsamples = 97\nvalue = [0, 0, 0, 0, 0, 0, 0, 0, 0, 0, 0, 0, 0, 0\n0, 0, 0, 0, 0, 3, 159, 0]", fillcolor="#e53d53"] ;
377 -> 378 ;
379 [label="X[4] <= 262.5\ngini = 0.12\nsamples = 29\nvalue = [0, 0, 0, 0, 0, 0, 0, 0, 0, 0, 0, 0, 0, 0\n0, 0, 0, 0, 0, 3, 42, 0]", fillcolor="#e7475c"] ;
378 -> 379 ;
380 [label="gini = 0.0\nsamples = 27\nvalue = [0, 0, 0, 0, 0, 0, 0, 0, 0, 0, 0, 0, 0, 0\n0, 0, 0, 0, 0, 0, 41, 0]", fillcolor="#e53950"] ;
379 -> 380 ;
381 [label="gini = 0.38\nsamples = 2\nvalue = [0, 0, 0, 0, 0, 0, 0, 0, 0, 0, 0, 0, 0, 0\n0, 0, 0, 0, 0, 3, 1, 0]", fillcolor="#ee7bab"] ;
379 -> 381 ;
382 [label="gini = 0.0\nsamples = 68\nvalue = [0, 0, 0, 0, 0, 0, 0, 0, 0, 0, 0, 0, 0, 0\n0, 0, 0, 0, 0, 0, 117, 0]", fillcolor="#e53950"] ;
378 -> 382 ;
383 [label="X[2] <= 191.5\ngini = 0.71\nsamples = 7\nvalue = [0, 0, 0, 0, 0, 3, 0, 0, 0, 0, 0, 0, 0, 0\n5, 0, 0, 0, 0, 2, 0, 2]", fillcolor="#dcd3f9"] ;
377 -> 383 ;
384 [label="X[4] <= 160.5\ngini = 0.41\nsamples = 4\nvalue = [0, 0, 0, 0, 0, 0, 0, 0, 0, 0, 0, 0, 0, 0\n5, 0, 0, 0, 0, 2, 0, 0]", fillcolor="#a088ef"] ;
383 -> 384 ;
385 [label="gini = 0.0\nsamples = 2\nvalue = [0, 0, 0, 0, 0, 0, 0, 0, 0, 0, 0, 0, 0, 0\n3, 0, 0, 0, 0, 0, 0, 0]", fillcolor="#6139e5"] ;
384 -> 385 ;
386 [label="gini = 0.5\nsamples = 2\nvalue = [0, 0, 0, 0, 0, 0, 0, 0, 0, 0, 0, 0, 0, 0\n2, 0, 0, 0, 0, 2, 0, 0]", fillcolor="#ffffff"] ;
384 -> 386 ;
387 [label="X[2] <= 195.5\ngini = 0.48\nsamples = 3\nvalue = [0, 0, 0, 0, 0, 3, 0, 0, 0, 0, 0, 0, 0, 0\n0, 0, 0, 0, 0, 0, 0, 2]", fillcolor="#caf6bd"] ;
383 -> 387 ;
388 [label="gini = 0.0\nsamples = 1\nvalue = [0, 0, 0, 0, 0, 3, 0, 0, 0, 0, 0, 0, 0, 0\n0, 0, 0, 0, 0, 0, 0, 0]", fillcolor="#61e539"] ;
387 -> 388 ;
389 [label="gini = 0.0\nsamples = 2\nvalue = [0, 0, 0, 0, 0, 0, 0, 0, 0, 0, 0, 0, 0, 0\n0, 0, 0, 0, 0, 0, 0, 2]", fillcolor="#e55039"] ;
387 -> 389 ;
390 [label="gini = 0.0\nsamples = 124\nvalue = [0, 0, 0, 0, 0, 0, 0, 0, 0, 0, 0, 0, 0, 0\n0, 0, 0, 0, 0, 0, 184, 0]", fillcolor="#e53950"] ;
376 -> 390 ;
391 [label="X[2] <= 95.0\ngini = 0.41\nsamples = 126\nvalue = [0, 0, 5, 0, 0, 0, 0, 0, 0, 0, 0, 0, 0, 0\n2, 0, 0, 0, 0, 10, 152, 35]", fillcolor="#ed7686"] ;
363 -> 391 ;
392 [label="X[4] <= 37.5\ngini = 0.2\nsamples = 99\nvalue = [0, 0, 0, 0, 0, 0, 0, 0, 0, 0, 0, 0, 0, 0\n2, 0, 0, 0, 0, 10, 152, 6]", fillcolor="#e84f64"] ;
391 -> 392 ;
393 [label="X[4] <= 35.5\ngini = 0.57\nsamples = 14\nvalue = [0, 0, 0, 0, 0, 0, 0, 0, 0, 0, 0, 0, 0, 0\n2, 0, 0, 0, 0, 3, 14, 4]", fillcolor="#f197a3"] ;
392 -> 393 ;
394 [label="X[4] <= 19.5\ngini = 0.12\nsamples = 9\nvalue = [0, 0, 0, 0, 0, 0, 0, 0, 0, 0, 0, 0, 0, 0\n0, 0, 0, 0, 0, 0, 14, 1]", fillcolor="#e7475c"] ;
393 -> 394 ;
395 [label="gini = 0.0\nsamples = 1\nvalue = [0, 0, 0, 0, 0, 0, 0, 0, 0, 0, 0, 0, 0, 0\n0, 0, 0, 0, 0, 0, 0, 1]", fillcolor="#e55039"] ;
394 -> 395 ;
396 [label="gini = 0.0\nsamples = 8\nvalue = [0, 0, 0, 0, 0, 0, 0, 0, 0, 0, 0, 0, 0, 0\n0, 0, 0, 0, 0, 0, 14, 0]", fillcolor="#e53950"] ;
394 -> 396 ;
397 [label="X[1] <= 45.0\ngini = 0.66\nsamples = 5\nvalue = [0, 0, 0, 0, 0, 0, 0, 0, 0, 0, 0, 0, 0, 0\n2, 0, 0, 0, 0, 3, 0, 3]", fillcolor="#ffffff"] ;
393 -> 397 ;
398 [label="gini = 0.0\nsamples = 1\nvalue = [0, 0, 0, 0, 0, 0, 0, 0, 0, 0, 0, 0, 0, 0\n0, 0, 0, 0, 0, 0, 0, 3]", fillcolor="#e55039"] ;
397 -> 398 ;
399 [label="gini = 0.48\nsamples = 4\nvalue = [0, 0, 0, 0, 0, 0, 0, 0, 0, 0, 0, 0, 0, 0\n2, 0, 0, 0, 0, 3, 0, 0]", fillcolor="#f6bdd5"] ;
397 -> 399 ;
400 [label="X[1] <= 45.0\ngini = 0.12\nsamples = 85\nvalue = [0, 0, 0, 0, 0, 0, 0, 0, 0, 0, 0, 0, 0, 0\n0, 0, 0, 0, 0, 7, 138, 2]", fillcolor="#e7465b"] ;
392 -> 400 ;
401 [label="gini = 0.0\nsamples = 2\nvalue = [0, 0, 0, 0, 0, 0, 0, 0, 0, 0, 0, 0, 0, 0\n0, 0, 0, 0, 0, 0, 0, 2]", fillcolor="#e55039"] ;
400 -> 401 ;
402 [label="X[4] <= 375.5\ngini = 0.09\nsamples = 83\nvalue = [0, 0, 0, 0, 0, 0, 0, 0, 0, 0, 0, 0, 0, 0\n0, 0, 0, 0, 0, 7, 138, 0]", fillcolor="#e64359"] ;
400 -> 402 ;
403 [label="X[3] <= 429.5\ngini = 0.02\nsamples = 60\nvalue = [0, 0, 0, 0, 0, 0, 0, 0, 0, 0, 0, 0, 0, 0\n0, 0, 0, 0, 0, 1, 108, 0]", fillcolor="#e53b52"] ;
402 -> 403 ;
404 [label="gini = 0.0\nsamples = 53\nvalue = [0, 0, 0, 0, 0, 0, 0, 0, 0, 0, 0, 0, 0, 0\n0, 0, 0, 0, 0, 0, 95, 0]", fillcolor="#e53950"] ;
403 -> 404 ;
405 [label="X[4] <= 118.5\ngini = 0.13\nsamples = 7\nvalue = [0, 0, 0, 0, 0, 0, 0, 0, 0, 0, 0, 0, 0, 0\n0, 0, 0, 0, 0, 1, 13, 0]", fillcolor="#e7485d"] ;
403 -> 405 ;
406 [label="gini = 0.0\nsamples = 4\nvalue = [0, 0, 0, 0, 0, 0, 0, 0, 0, 0, 0, 0, 0, 0\n0, 0, 0, 0, 0, 0, 10, 0]", fillcolor="#e53950"] ;
405 -> 406 ;
407 [label="X[4] <= 179.0\ngini = 0.38\nsamples = 3\nvalue = [0, 0, 0, 0, 0, 0, 0, 0, 0, 0, 0, 0, 0, 0\n0, 0, 0, 0, 0, 1, 3, 0]", fillcolor="#ee7b8a"] ;
405 -> 407 ;
408 [label="gini = 0.0\nsamples = 1\nvalue = [0, 0, 0, 0, 0, 0, 0, 0, 0, 0, 0, 0, 0, 0\n0, 0, 0, 0, 0, 1, 0, 0]", fillcolor="#e53981"] ;
407 -> 408 ;
409 [label="gini = 0.0\nsamples = 2\nvalue = [0, 0, 0, 0, 0, 0, 0, 0, 0, 0, 0, 0, 0, 0\n0, 0, 0, 0, 0, 0, 3, 0]", fillcolor="#e53950"] ;
407 -> 409 ;
410 [label="X[2] <= 30.5\ngini = 0.28\nsamples = 23\nvalue = [0, 0, 0, 0, 0, 0, 0, 0, 0, 0, 0, 0, 0, 0\n0, 0, 0, 0, 0, 6, 30, 0]", fillcolor="#ea6173"] ;
402 -> 410 ;
411 [label="X[3] <= 426.5\ngini = 0.38\nsamples = 10\nvalue = [0, 0, 0, 0, 0, 0, 0, 0, 0, 0, 0, 0, 0, 0\n0, 0, 0, 0, 0, 5, 15, 0]", fillcolor="#ee7b8a"] ;
410 -> 411 ;
412 [label="X[4] <= 553.5\ngini = 0.42\nsamples = 8\nvalue = [0, 0, 0, 0, 0, 0, 0, 0, 0, 0, 0, 0, 0, 0\n0, 0, 0, 0, 0, 5, 12, 0]", fillcolor="#f08b99"] ;
411 -> 412 ;
413 [label="X[4] <= 539.5\ngini = 0.41\nsamples = 4\nvalue = [0, 0, 0, 0, 0, 0, 0, 0, 0, 0, 0, 0, 0, 0\n0, 0, 0, 0, 0, 5, 2, 0]", fillcolor="#ef88b3"] ;
412 -> 413 ;
414 [label="X[3] <= 425.5\ngini = 0.5\nsamples = 3\nvalue = [0, 0, 0, 0, 0, 0, 0, 0, 0, 0, 0, 0, 0, 0\n0, 0, 0, 0, 0, 2, 2, 0]", fillcolor="#ffffff"] ;
413 -> 414 ;
415 [label="gini = 0.0\nsamples = 1\nvalue = [0, 0, 0, 0, 0, 0, 0, 0, 0, 0, 0, 0, 0, 0\n0, 0, 0, 0, 0, 0, 1, 0]", fillcolor="#e53950"] ;
414 -> 415 ;
416 [label="X[4] <= 454.5\ngini = 0.44\nsamples = 2\nvalue = [0, 0, 0, 0, 0, 0, 0, 0, 0, 0, 0, 0, 0, 0\n0, 0, 0, 0, 0, 2, 1, 0]", fillcolor="#f29cc0"] ;
414 -> 416 ;
417 [label="gini = 0.0\nsamples = 1\nvalue = [0, 0, 0, 0, 0, 0, 0, 0, 0, 0, 0, 0, 0, 0\n0, 0, 0, 0, 0, 2, 0, 0]", fillcolor="#e53981"] ;
416 -> 417 ;
418 [label="gini = 0.0\nsamples = 1\nvalue = [0, 0, 0, 0, 0, 0, 0, 0, 0, 0, 0, 0, 0, 0\n0, 0, 0, 0, 0, 0, 1, 0]", fillcolor="#e53950"] ;
416 -> 418 ;
419 [label="gini = 0.0\nsamples = 1\nvalue = [0, 0, 0, 0, 0, 0, 0, 0, 0, 0, 0, 0, 0, 0\n0, 0, 0, 0, 0, 3, 0, 0]", fillcolor="#e53981"] ;
413 -> 419 ;
420 [label="gini = 0.0\nsamples = 4\nvalue = [0, 0, 0, 0, 0, 0, 0, 0, 0, 0, 0, 0, 0, 0\n0, 0, 0, 0, 0, 0, 10, 0]", fillcolor="#e53950"] ;
412 -> 420 ;
421 [label="gini = 0.0\nsamples = 2\nvalue = [0, 0, 0, 0, 0, 0, 0, 0, 0, 0, 0, 0, 0, 0\n0, 0, 0, 0, 0, 0, 3, 0]", fillcolor="#e53950"] ;
411 -> 421 ;
422 [label="X[4] <= 553.5\ngini = 0.12\nsamples = 13\nvalue = [0, 0, 0, 0, 0, 0, 0, 0, 0, 0, 0, 0, 0, 0\n0, 0, 0, 0, 0, 1, 15, 0]", fillcolor="#e7465c"] ;
410 -> 422 ;
423 [label="X[4] <= 539.5\ngini = 0.24\nsamples = 7\nvalue = [0, 0, 0, 0, 0, 0, 0, 0, 0, 0, 0, 0, 0, 0\n0, 0, 0, 0, 0, 1, 6, 0]", fillcolor="#e95a6d"] ;
422 -> 423 ;
424 [label="gini = 0.0\nsamples = 6\nvalue = [0, 0, 0, 0, 0, 0, 0, 0, 0, 0, 0, 0, 0, 0\n0, 0, 0, 0, 0, 0, 6, 0]", fillcolor="#e53950"] ;
423 -> 424 ;
425 [label="gini = 0.0\nsamples = 1\nvalue = [0, 0, 0, 0, 0, 0, 0, 0, 0, 0, 0, 0, 0, 0\n0, 0, 0, 0, 0, 1, 0, 0]", fillcolor="#e53981"] ;
423 -> 425 ;
426 [label="gini = 0.0\nsamples = 6\nvalue = [0, 0, 0, 0, 0, 0, 0, 0, 0, 0, 0, 0, 0, 0\n0, 0, 0, 0, 0, 0, 9, 0]", fillcolor="#e53950"] ;
422 -> 426 ;
427 [label="X[2] <= 143.0\ngini = 0.25\nsamples = 27\nvalue = [0, 0, 5, 0, 0, 0, 0, 0, 0, 0, 0, 0, 0, 0\n0, 0, 0, 0, 0, 0, 0, 29]", fillcolor="#e96e5b"] ;
391 -> 427 ;
428 [label="X[2] <= 139.0\ngini = 0.41\nsamples = 5\nvalue = [0, 0, 5, 0, 0, 0, 0, 0, 0, 0, 0, 0, 0, 0\n0, 0, 0, 0, 0, 0, 0, 2]", fillcolor="#efea88"] ;
427 -> 428 ;
429 [label="gini = 0.0\nsamples = 1\nvalue = [0, 0, 0, 0, 0, 0, 0, 0, 0, 0, 0, 0, 0, 0\n0, 0, 0, 0, 0, 0, 0, 2]", fillcolor="#e55039"] ;
428 -> 429 ;
430 [label="gini = 0.0\nsamples = 4\nvalue = [0, 0, 5, 0, 0, 0, 0, 0, 0, 0, 0, 0, 0, 0\n0, 0, 0, 0, 0, 0, 0, 0]", fillcolor="#e5dc39"] ;
428 -> 430 ;
431 [label="gini = 0.0\nsamples = 22\nvalue = [0, 0, 0, 0, 0, 0, 0, 0, 0, 0, 0, 0, 0, 0\n0, 0, 0, 0, 0, 0, 0, 27]", fillcolor="#e55039"] ;
427 -> 431 ;
432 [label="X[3] <= 54.0\ngini = 0.68\nsamples = 336\nvalue = [0, 0, 0, 0, 0, 12, 14, 0, 0, 52, 0, 0, 0, 0\n0, 0, 0, 0, 13, 158, 247, 41]", fillcolor="#f9d1d6"] ;
326 -> 432 ;
433 [label="X[4] <= 358.0\ngini = 0.57\nsamples = 150\nvalue = [0, 0, 0, 0, 0, 12, 14, 0, 0, 52, 0, 0, 0, 0\n0, 0, 0, 0, 13, 139, 0, 0]", fillcolor="#f29ec1"] ;
432 -> 433 ;
434 [label="X[2] <= 28.0\ngini = 0.63\nsamples = 86\nvalue = [0, 0, 0, 0, 0, 12, 3, 0, 0, 47, 0, 0, 0, 0\n0, 0, 0, 0, 6, 61, 0, 0]", fillcolor="#fbdde9"] ;
433 -> 434 ;
435 [label="X[3] <= 16.5\ngini = 0.23\nsamples = 35\nvalue = [0, 0, 0, 0, 0, 0, 0, 0, 0, 47, 0, 0, 0, 0\n0, 0, 0, 0, 4, 3, 0, 0]", fillcolor="#55e9d5"] ;
434 -> 435 ;
436 [label="X[4] <= 108.5\ngini = 0.5\nsamples = 4\nvalue = [0, 0, 0, 0, 0, 0, 0, 0, 0, 0, 0, 0, 0, 0\n0, 0, 0, 0, 3, 3, 0, 0]", fillcolor="#ffffff"] ;
435 -> 436 ;
437 [label="X[4] <= 81.5\ngini = 0.38\nsamples = 3\nvalue = [0, 0, 0, 0, 0, 0, 0, 0, 0, 0, 0, 0, 0, 0\n0, 0, 0, 0, 1, 3, 0, 0]", fillcolor="#ee7bab"] ;
436 -> 437 ;
438 [label="gini = 0.0\nsamples = 1\nvalue = [0, 0, 0, 0, 0, 0, 0, 0, 0, 0, 0, 0, 0, 0\n0, 0, 0, 0, 1, 0, 0, 0]", fillcolor="#e539ae"] ;
437 -> 438 ;
439 [label="gini = 0.0\nsamples = 2\nvalue = [0, 0, 0, 0, 0, 0, 0, 0, 0, 0, 0, 0, 0, 0\n0, 0, 0, 0, 0, 3, 0, 0]", fillcolor="#e53981"] ;
437 -> 439 ;
440 [label="gini = 0.0\nsamples = 1\nvalue = [0, 0, 0, 0, 0, 0, 0, 0, 0, 0, 0, 0, 0, 0\n0, 0, 0, 0, 2, 0, 0, 0]", fillcolor="#e539ae"] ;
436 -> 440 ;
441 [label="X[0] <= 93.5\ngini = 0.04\nsamples = 31\nvalue = [0, 0, 0, 0, 0, 0, 0, 0, 0, 47, 0, 0, 0, 0\n0, 0, 0, 0, 1, 0, 0, 0]", fillcolor="#3de6cf"] ;
435 -> 441 ;
442 [label="gini = 0.0\nsamples = 1\nvalue = [0, 0, 0, 0, 0, 0, 0, 0, 0, 0, 0, 0, 0, 0\n0, 0, 0, 0, 1, 0, 0, 0]", fillcolor="#e539ae"] ;
441 -> 442 ;
443 [label="gini = 0.0\nsamples = 30\nvalue = [0, 0, 0, 0, 0, 0, 0, 0, 0, 47, 0, 0, 0, 0\n0, 0, 0, 0, 0, 0, 0, 0]", fillcolor="#39e5ce"] ;
441 -> 443 ;
444 [label="X[0] <= 119.5\ngini = 0.37\nsamples = 51\nvalue = [0, 0, 0, 0, 0, 12, 3, 0, 0, 0, 0, 0, 0, 0\n0, 0, 0, 0, 2, 58, 0, 0]", fillcolor="#ec6ea3"] ;
434 -> 444 ;
445 [label="X[4] <= 278.5\ngini = 0.13\nsamples = 44\nvalue = [0, 0, 0, 0, 0, 1, 1, 0, 0, 0, 0, 0, 0, 0\n0, 0, 0, 0, 2, 57, 0, 0]", fillcolor="#e7468a"] ;
444 -> 445 ;
446 [label="X[4] <= 266.5\ngini = 0.19\nsamples = 32\nvalue = [0, 0, 0, 0, 0, 1, 1, 0, 0, 0, 0, 0, 0, 0\n0, 0, 0, 0, 2, 36, 0, 0]", fillcolor="#e84e8e"] ;
445 -> 446 ;
447 [label="X[2] <= 302.0\ngini = 0.15\nsamples = 31\nvalue = [0, 0, 0, 0, 0, 1, 1, 0, 0, 0, 0, 0, 0, 0\n0, 0, 0, 0, 1, 36, 0, 0]", fillcolor="#e7498b"] ;
446 -> 447 ;
448 [label="X[2] <= 44.5\ngini = 0.48\nsamples = 9\nvalue = [0, 0, 0, 0, 0, 1, 1, 0, 0, 0, 0, 0, 0, 0\n0, 0, 0, 0, 1, 7, 0, 0]", fillcolor="#ee7bab"] ;
447 -> 448 ;
449 [label="X[4] <= 108.5\ngini = 0.44\nsamples = 3\nvalue = [0, 0, 0, 0, 0, 0, 0, 0, 0, 0, 0, 0, 0, 0\n0, 0, 0, 0, 1, 2, 0, 0]", fillcolor="#f29cc0"] ;
448 -> 449 ;
450 [label="gini = 0.0\nsamples = 2\nvalue = [0, 0, 0, 0, 0, 0, 0, 0, 0, 0, 0, 0, 0, 0\n0, 0, 0, 0, 0, 2, 0, 0]", fillcolor="#e53981"] ;
449 -> 450 ;
451 [label="gini = 0.0\nsamples = 1\nvalue = [0, 0, 0, 0, 0, 0, 0, 0, 0, 0, 0, 0, 0, 0\n0, 0, 0, 0, 1, 0, 0, 0]", fillcolor="#e539ae"] ;
449 -> 451 ;
452 [label="X[3] <= 29.5\ngini = 0.45\nsamples = 6\nvalue = [0, 0, 0, 0, 0, 1, 1, 0, 0, 0, 0, 0, 0, 0\n0, 0, 0, 0, 0, 5, 0, 0]", fillcolor="#ee7bab"] ;
448 -> 452 ;
453 [label="X[3] <= 22.5\ngini = 0.5\nsamples = 2\nvalue = [0, 0, 0, 0, 0, 1, 1, 0, 0, 0, 0, 0, 0, 0\n0, 0, 0, 0, 0, 0, 0, 0]", fillcolor="#ffffff"] ;
452 -> 453 ;
454 [label="gini = 0.0\nsamples = 1\nvalue = [0, 0, 0, 0, 0, 0, 1, 0, 0, 0, 0, 0, 0, 0\n0, 0, 0, 0, 0, 0, 0, 0]", fillcolor="#39e541"] ;
453 -> 454 ;
455 [label="gini = 0.0\nsamples = 1\nvalue = [0, 0, 0, 0, 0, 1, 0, 0, 0, 0, 0, 0, 0, 0\n0, 0, 0, 0, 0, 0, 0, 0]", fillcolor="#61e539"] ;
453 -> 455 ;
456 [label="gini = 0.0\nsamples = 4\nvalue = [0, 0, 0, 0, 0, 0, 0, 0, 0, 0, 0, 0, 0, 0\n0, 0, 0, 0, 0, 5, 0, 0]", fillcolor="#e53981"] ;
452 -> 456 ;
457 [label="gini = 0.0\nsamples = 22\nvalue = [0, 0, 0, 0, 0, 0, 0, 0, 0, 0, 0, 0, 0, 0\n0, 0, 0, 0, 0, 29, 0, 0]", fillcolor="#e53981"] ;
447 -> 457 ;
458 [label="gini = 0.0\nsamples = 1\nvalue = [0, 0, 0, 0, 0, 0, 0, 0, 0, 0, 0, 0, 0, 0\n0, 0, 0, 0, 1, 0, 0, 0]", fillcolor="#e539ae"] ;
446 -> 458 ;
459 [label="gini = 0.0\nsamples = 12\nvalue = [0, 0, 0, 0, 0, 0, 0, 0, 0, 0, 0, 0, 0, 0\n0, 0, 0, 0, 0, 21, 0, 0]", fillcolor="#e53981"] ;
445 -> 459 ;
460 [label="X[4] <= 244.0\ngini = 0.36\nsamples = 7\nvalue = [0, 0, 0, 0, 0, 11, 2, 0, 0, 0, 0, 0, 0, 0\n0, 0, 0, 0, 0, 1, 0, 0]", fillcolor="#88ec6b"] ;
444 -> 460 ;
461 [label="X[3] <= 26.5\ngini = 0.62\nsamples = 3\nvalue = [0, 0, 0, 0, 0, 1, 2, 0, 0, 0, 0, 0, 0, 0\n0, 0, 0, 0, 0, 1, 0, 0]", fillcolor="#bdf6c0"] ;
460 -> 461 ;
462 [label="gini = 0.0\nsamples = 1\nvalue = [0, 0, 0, 0, 0, 0, 2, 0, 0, 0, 0, 0, 0, 0\n0, 0, 0, 0, 0, 0, 0, 0]", fillcolor="#39e541"] ;
461 -> 462 ;
463 [label="X[0] <= 198.0\ngini = 0.5\nsamples = 2\nvalue = [0, 0, 0, 0, 0, 1, 0, 0, 0, 0, 0, 0, 0, 0\n0, 0, 0, 0, 0, 1, 0, 0]", fillcolor="#ffffff"] ;
461 -> 463 ;
464 [label="gini = 0.0\nsamples = 1\nvalue = [0, 0, 0, 0, 0, 1, 0, 0, 0, 0, 0, 0, 0, 0\n0, 0, 0, 0, 0, 0, 0, 0]", fillcolor="#61e539"] ;
463 -> 464 ;
465 [label="gini = 0.0\nsamples = 1\nvalue = [0, 0, 0, 0, 0, 0, 0, 0, 0, 0, 0, 0, 0, 0\n0, 0, 0, 0, 0, 1, 0, 0]", fillcolor="#e53981"] ;
463 -> 465 ;
466 [label="gini = 0.0\nsamples = 4\nvalue = [0, 0, 0, 0, 0, 10, 0, 0, 0, 0, 0, 0, 0, 0\n0, 0, 0, 0, 0, 0, 0, 0]", fillcolor="#61e539"] ;
460 -> 466 ;
467 [label="X[4] <= 448.5\ngini = 0.38\nsamples = 64\nvalue = [0, 0, 0, 0, 0, 0, 11, 0, 0, 5, 0, 0, 0, 0\n0, 0, 0, 0, 7, 78, 0, 0]", fillcolor="#ec6ca1"] ;
433 -> 467 ;
468 [label="gini = 0.0\nsamples = 46\nvalue = [0, 0, 0, 0, 0, 0, 0, 0, 0, 0, 0, 0, 0, 0\n0, 0, 0, 0, 0, 74, 0, 0]", fillcolor="#e53981"] ;
467 -> 468 ;
469 [label="X[0] <= 120.5\ngini = 0.71\nsamples = 18\nvalue = [0, 0, 0, 0, 0, 0, 11, 0, 0, 5, 0, 0, 0, 0\n0, 0, 0, 0, 7, 4, 0, 0]", fillcolor="#d7fad9"] ;
467 -> 469 ;
470 [label="X[2] <= 302.0\ngini = 0.67\nsamples = 9\nvalue = [0, 0, 0, 0, 0, 0, 1, 0, 0, 5, 0, 0, 0, 0\n0, 0, 0, 0, 7, 3, 0, 0]", fillcolor="#fadbf0"] ;
469 -> 470 ;
471 [label="X[0] <= 114.5\ngini = 0.56\nsamples = 7\nvalue = [0, 0, 0, 0, 0, 0, 1, 0, 0, 5, 0, 0, 0, 0\n0, 0, 0, 0, 7, 0, 0, 0]", fillcolor="#f8ceeb"] ;
470 -> 471 ;
472 [label="X[0] <= 113.5\ngini = 0.22\nsamples = 6\nvalue = [0, 0, 0, 0, 0, 0, 1, 0, 0, 0, 0, 0, 0, 0\n0, 0, 0, 0, 7, 0, 0, 0]", fillcolor="#e955ba"] ;
471 -> 472 ;
473 [label="X[0] <= 95.0\ngini = 0.38\nsamples = 4\nvalue = [0, 0, 0, 0, 0, 0, 1, 0, 0, 0, 0, 0, 0, 0\n0, 0, 0, 0, 3, 0, 0, 0]", fillcolor="#ee7bc9"] ;
472 -> 473 ;
474 [label="gini = 0.0\nsamples = 3\nvalue = [0, 0, 0, 0, 0, 0, 0, 0, 0, 0, 0, 0, 0, 0\n0, 0, 0, 0, 3, 0, 0, 0]", fillcolor="#e539ae"] ;
473 -> 474 ;
475 [label="gini = 0.0\nsamples = 1\nvalue = [0, 0, 0, 0, 0, 0, 1, 0, 0, 0, 0, 0, 0, 0\n0, 0, 0, 0, 0, 0, 0, 0]", fillcolor="#39e541"] ;
473 -> 475 ;
476 [label="gini = 0.0\nsamples = 2\nvalue = [0, 0, 0, 0, 0, 0, 0, 0, 0, 0, 0, 0, 0, 0\n0, 0, 0, 0, 4, 0, 0, 0]", fillcolor="#e539ae"] ;
472 -> 476 ;
477 [label="gini = 0.0\nsamples = 1\nvalue = [0, 0, 0, 0, 0, 0, 0, 0, 0, 5, 0, 0, 0, 0\n0, 0, 0, 0, 0, 0, 0, 0]", fillcolor="#39e5ce"] ;
471 -> 477 ;
478 [label="gini = 0.0\nsamples = 2\nvalue = [0, 0, 0, 0, 0, 0, 0, 0, 0, 0, 0, 0, 0, 0\n0, 0, 0, 0, 0, 3, 0, 0]", fillcolor="#e53981"] ;
470 -> 478 ;
479 [label="X[0] <= 174.0\ngini = 0.17\nsamples = 9\nvalue = [0, 0, 0, 0, 0, 0, 10, 0, 0, 0, 0, 0, 0, 0\n0, 0, 0, 0, 0, 1, 0, 0]", fillcolor="#4de854"] ;
469 -> 479 ;
480 [label="gini = 0.0\nsamples = 8\nvalue = [0, 0, 0, 0, 0, 0, 10, 0, 0, 0, 0, 0, 0, 0\n0, 0, 0, 0, 0, 0, 0, 0]", fillcolor="#39e541"] ;
479 -> 480 ;
481 [label="gini = 0.0\nsamples = 1\nvalue = [0, 0, 0, 0, 0, 0, 0, 0, 0, 0, 0, 0, 0, 0\n0, 0, 0, 0, 0, 1, 0, 0]", fillcolor="#e53981"] ;
479 -> 481 ;
482 [label="X[3] <= 183.5\ngini = 0.33\nsamples = 186\nvalue = [0, 0, 0, 0, 0, 0, 0, 0, 0, 0, 0, 0, 0, 0\n0, 0, 0, 0, 0, 19, 247, 41]", fillcolor="#eb6677"] ;
432 -> 482 ;
483 [label="X[1] <= 45.0\ngini = 0.58\nsamples = 85\nvalue = [0, 0, 0, 0, 0, 0, 0, 0, 0, 0, 0, 0, 0, 0\n0, 0, 0, 0, 0, 19, 73, 41]", fillcolor="#f6bac2"] ;
482 -> 483 ;
484 [label="X[2] <= 30.0\ngini = 0.5\nsamples = 50\nvalue = [0, 0, 0, 0, 0, 0, 0, 0, 0, 0, 0, 0, 0, 0\n0, 0, 0, 0, 0, 0, 47, 41]", fillcolor="#fce6e9"] ;
483 -> 484 ;
485 [label="X[4] <= 14.0\ngini = 0.08\nsamples = 26\nvalue = [0, 0, 0, 0, 0, 0, 0, 0, 0, 0, 0, 0, 0, 0\n0, 0, 0, 0, 0, 0, 47, 2]", fillcolor="#e64157"] ;
484 -> 485 ;
486 [label="gini = 0.0\nsamples = 1\nvalue = [0, 0, 0, 0, 0, 0, 0, 0, 0, 0, 0, 0, 0, 0\n0, 0, 0, 0, 0, 0, 0, 2]", fillcolor="#e55039"] ;
485 -> 486 ;
487 [label="gini = 0.0\nsamples = 25\nvalue = [0, 0, 0, 0, 0, 0, 0, 0, 0, 0, 0, 0, 0, 0\n0, 0, 0, 0, 0, 0, 47, 0]", fillcolor="#e53950"] ;
485 -> 487 ;
488 [label="gini = 0.0\nsamples = 24\nvalue = [0, 0, 0, 0, 0, 0, 0, 0, 0, 0, 0, 0, 0, 0\n0, 0, 0, 0, 0, 0, 0, 39]", fillcolor="#e55039"] ;
484 -> 488 ;
489 [label="X[4] <= 66.5\ngini = 0.49\nsamples = 35\nvalue = [0, 0, 0, 0, 0, 0, 0, 0, 0, 0, 0, 0, 0, 0\n0, 0, 0, 0, 0, 19, 26, 0]", fillcolor="#f8cad0"] ;
483 -> 489 ;
490 [label="X[4] <= 57.5\ngini = 0.44\nsamples = 14\nvalue = [0, 0, 0, 0, 0, 0, 0, 0, 0, 0, 0, 0, 0, 0\n0, 0, 0, 0, 0, 12, 6, 0]", fillcolor="#f29cc0"] ;
489 -> 490 ;
491 [label="X[4] <= 55.5\ngini = 0.49\nsamples = 12\nvalue = [0, 0, 0, 0, 0, 0, 0, 0, 0, 0, 0, 0, 0, 0\n0, 0, 0, 0, 0, 8, 6, 0]", fillcolor="#f8cee0"] ;
490 -> 491 ;
492 [label="X[4] <= 52.5\ngini = 0.47\nsamples = 11\nvalue = [0, 0, 0, 0, 0, 0, 0, 0, 0, 0, 0, 0, 0, 0\n0, 0, 0, 0, 0, 8, 5, 0]", fillcolor="#f5b5d0"] ;
491 -> 492 ;
493 [label="X[4] <= 49.0\ngini = 0.5\nsamples = 10\nvalue = [0, 0, 0, 0, 0, 0, 0, 0, 0, 0, 0, 0, 0, 0\n0, 0, 0, 0, 0, 6, 5, 0]", fillcolor="#fbdeea"] ;
492 -> 493 ;
494 [label="X[4] <= 39.0\ngini = 0.41\nsamples = 7\nvalue = [0, 0, 0, 0, 0, 0, 0, 0, 0, 0, 0, 0, 0, 0\n0, 0, 0, 0, 0, 5, 2, 0]", fillcolor="#ef88b3"] ;
493 -> 494 ;
495 [label="gini = 0.5\nsamples = 2\nvalue = [0, 0, 0, 0, 0, 0, 0, 0, 0, 0, 0, 0, 0, 0\n0, 0, 0, 0, 0, 1, 1, 0]", fillcolor="#ffffff"] ;
494 -> 495 ;
496 [label="X[4] <= 47.5\ngini = 0.32\nsamples = 5\nvalue = [0, 0, 0, 0, 0, 0, 0, 0, 0, 0, 0, 0, 0, 0\n0, 0, 0, 0, 0, 4, 1, 0]", fillcolor="#ec6aa0"] ;
494 -> 496 ;
497 [label="gini = 0.0\nsamples = 2\nvalue = [0, 0, 0, 0, 0, 0, 0, 0, 0, 0, 0, 0, 0, 0\n0, 0, 0, 0, 0, 2, 0, 0]", fillcolor="#e53981"] ;
496 -> 497 ;
498 [label="gini = 0.44\nsamples = 3\nvalue = [0, 0, 0, 0, 0, 0, 0, 0, 0, 0, 0, 0, 0, 0\n0, 0, 0, 0, 0, 2, 1, 0]", fillcolor="#f29cc0"] ;
496 -> 498 ;
499 [label="X[4] <= 50.5\ngini = 0.38\nsamples = 3\nvalue = [0, 0, 0, 0, 0, 0, 0, 0, 0, 0, 0, 0, 0, 0\n0, 0, 0, 0, 0, 1, 3, 0]", fillcolor="#ee7b8a"] ;
493 -> 499 ;
500 [label="gini = 0.0\nsamples = 1\nvalue = [0, 0, 0, 0, 0, 0, 0, 0, 0, 0, 0, 0, 0, 0\n0, 0, 0, 0, 0, 0, 1, 0]", fillcolor="#e53950"] ;
499 -> 500 ;
501 [label="gini = 0.44\nsamples = 2\nvalue = [0, 0, 0, 0, 0, 0, 0, 0, 0, 0, 0, 0, 0, 0\n0, 0, 0, 0, 0, 1, 2, 0]", fillcolor="#f29ca8"] ;
499 -> 501 ;
502 [label="gini = 0.0\nsamples = 1\nvalue = [0, 0, 0, 0, 0, 0, 0, 0, 0, 0, 0, 0, 0, 0\n0, 0, 0, 0, 0, 2, 0, 0]", fillcolor="#e53981"] ;
492 -> 502 ;
503 [label="gini = 0.0\nsamples = 1\nvalue = [0, 0, 0, 0, 0, 0, 0, 0, 0, 0, 0, 0, 0, 0\n0, 0, 0, 0, 0, 0, 1, 0]", fillcolor="#e53950"] ;
491 -> 503 ;
504 [label="gini = 0.0\nsamples = 2\nvalue = [0, 0, 0, 0, 0, 0, 0, 0, 0, 0, 0, 0, 0, 0\n0, 0, 0, 0, 0, 4, 0, 0]", fillcolor="#e53981"] ;
490 -> 504 ;
505 [label="X[4] <= 71.5\ngini = 0.38\nsamples = 21\nvalue = [0, 0, 0, 0, 0, 0, 0, 0, 0, 0, 0, 0, 0, 0\n0, 0, 0, 0, 0, 7, 20, 0]", fillcolor="#ee7e8d"] ;
489 -> 505 ;
506 [label="gini = 0.14\nsamples = 9\nvalue = [0, 0, 0, 0, 0, 0, 0, 0, 0, 0, 0, 0, 0, 0\n0, 0, 0, 0, 0, 1, 12, 0]", fillcolor="#e7495f"] ;
505 -> 506 ;
507 [label="X[4] <= 569.0\ngini = 0.49\nsamples = 12\nvalue = [0, 0, 0, 0, 0, 0, 0, 0, 0, 0, 0, 0, 0, 0\n0, 0, 0, 0, 0, 6, 8, 0]", fillcolor="#f8ced3"] ;
505 -> 507 ;
508 [label="X[4] <= 527.0\ngini = 0.47\nsamples = 11\nvalue = [0, 0, 0, 0, 0, 0, 0, 0, 0, 0, 0, 0, 0, 0\n0, 0, 0, 0, 0, 5, 8, 0]", fillcolor="#f5b5bd"] ;
507 -> 508 ;
509 [label="X[4] <= 302.0\ngini = 0.49\nsamples = 10\nvalue = [0, 0, 0, 0, 0, 0, 0, 0, 0, 0, 0, 0, 0, 0\n0, 0, 0, 0, 0, 5, 7, 0]", fillcolor="#f8c6cd"] ;
508 -> 509 ;
510 [label="X[4] <= 95.0\ngini = 0.46\nsamples = 9\nvalue = [0, 0, 0, 0, 0, 0, 0, 0, 0, 0, 0, 0, 0, 0\n0, 0, 0, 0, 0, 4, 7, 0]", fillcolor="#f4aab4"] ;
509 -> 510 ;
511 [label="gini = 0.49\nsamples = 8\nvalue = [0, 0, 0, 0, 0, 0, 0, 0, 0, 0, 0, 0, 0, 0\n0, 0, 0, 0, 0, 4, 5, 0]", fillcolor="#fad7dc"] ;
510 -> 511 ;
512 [label="gini = 0.0\nsamples = 1\nvalue = [0, 0, 0, 0, 0, 0, 0, 0, 0, 0, 0, 0, 0, 0\n0, 0, 0, 0, 0, 0, 2, 0]", fillcolor="#e53950"] ;
510 -> 512 ;
513 [label="gini = 0.0\nsamples = 1\nvalue = [0, 0, 0, 0, 0, 0, 0, 0, 0, 0, 0, 0, 0, 0\n0, 0, 0, 0, 0, 1, 0, 0]", fillcolor="#e53981"] ;
509 -> 513 ;
514 [label="gini = 0.0\nsamples = 1\nvalue = [0, 0, 0, 0, 0, 0, 0, 0, 0, 0, 0, 0, 0, 0\n0, 0, 0, 0, 0, 0, 1, 0]", fillcolor="#e53950"] ;
508 -> 514 ;
515 [label="gini = 0.0\nsamples = 1\nvalue = [0, 0, 0, 0, 0, 0, 0, 0, 0, 0, 0, 0, 0, 0\n0, 0, 0, 0, 0, 1, 0, 0]", fillcolor="#e53981"] ;
507 -> 515 ;
516 [label="gini = 0.0\nsamples = 101\nvalue = [0, 0, 0, 0, 0, 0, 0, 0, 0, 0, 0, 0, 0, 0\n0, 0, 0, 0, 0, 0, 174, 0]", fillcolor="#e53950"] ;
482 -> 516 ;
517 [label="X[4] <= 288.5\ngini = 0.59\nsamples = 510\nvalue = [0, 0, 5, 0, 0, 503, 5, 0, 0, 17, 0, 2, 0, 0\n0, 0, 26, 1, 22, 24, 124, 94]", fillcolor="#a9f194"] ;
325 -> 517 ;
518 [label="X[3] <= 13.5\ngini = 0.76\nsamples = 191\nvalue = [0, 0, 5, 0, 0, 21, 5, 0, 0, 14, 0, 2, 0, 0\n0, 0, 26, 1, 12, 16, 108, 94]", fillcolor="#fdf2f3"] ;
517 -> 518 ;
519 [label="X[3] <= 10.5\ngini = 0.62\nsamples = 119\nvalue = [0, 0, 0, 0, 0, 20, 5, 0, 0, 14, 0, 2, 0, 0\n0, 0, 26, 0, 6, 4, 108, 0]", fillcolor="#f299a5"] ;
518 -> 519 ;
520 [label="X[3] <= 7.0\ngini = 0.42\nsamples = 95\nvalue = [0, 0, 0, 0, 0, 20, 5, 0, 0, 0, 0, 2, 0, 0\n0, 0, 0, 0, 6, 4, 108, 0]", fillcolor="#ed7484"] ;
519 -> 520 ;
521 [label="X[3] <= 4.5\ngini = 0.54\nsamples = 18\nvalue = [0, 0, 0, 0, 0, 20, 5, 0, 0, 0, 0, 2, 0, 0\n0, 0, 0, 0, 0, 4, 0, 0]", fillcolor="#a4f08d"] ;
520 -> 521 ;
522 [label="X[1] <= 153.5\ngini = 0.48\nsamples = 16\nvalue = [0, 0, 0, 0, 0, 20, 5, 0, 0, 0, 0, 0, 0, 0\n0, 0, 0, 0, 0, 4, 0, 0]", fillcolor="#9cef83"] ;
521 -> 522 ;
523 [label="gini = 0.0\nsamples = 12\nvalue = [0, 0, 0, 0, 0, 20, 0, 0, 0, 0, 0, 0, 0, 0\n0, 0, 0, 0, 0, 0, 0, 0]", fillcolor="#61e539"] ;
522 -> 523 ;
524 [label="X[1] <= 178.0\ngini = 0.49\nsamples = 4\nvalue = [0, 0, 0, 0, 0, 0, 5, 0, 0, 0, 0, 0, 0, 0\n0, 0, 0, 0, 0, 4, 0, 0]", fillcolor="#d7fad9"] ;
522 -> 524 ;
525 [label="X[4] <= 204.5\ngini = 0.28\nsamples = 3\nvalue = [0, 0, 0, 0, 0, 0, 5, 0, 0, 0, 0, 0, 0, 0\n0, 0, 0, 0, 0, 1, 0, 0]", fillcolor="#61ea67"] ;
524 -> 525 ;
526 [label="gini = 0.44\nsamples = 2\nvalue = [0, 0, 0, 0, 0, 0, 2, 0, 0, 0, 0, 0, 0, 0\n0, 0, 0, 0, 0, 1, 0, 0]", fillcolor="#9cf2a0"] ;
525 -> 526 ;
527 [label="gini = 0.0\nsamples = 1\nvalue = [0, 0, 0, 0, 0, 0, 3, 0, 0, 0, 0, 0, 0, 0\n0, 0, 0, 0, 0, 0, 0, 0]", fillcolor="#39e541"] ;
525 -> 527 ;
528 [label="gini = 0.0\nsamples = 1\nvalue = [0, 0, 0, 0, 0, 0, 0, 0, 0, 0, 0, 0, 0, 0\n0, 0, 0, 0, 0, 3, 0, 0]", fillcolor="#e53981"] ;
524 -> 528 ;
529 [label="gini = 0.0\nsamples = 2\nvalue = [0, 0, 0, 0, 0, 0, 0, 0, 0, 0, 0, 2, 0, 0\n0, 0, 0, 0, 0, 0, 0, 0]", fillcolor="#39a0e5"] ;
521 -> 529 ;
530 [label="X[1] <= 138.5\ngini = 0.1\nsamples = 77\nvalue = [0, 0, 0, 0, 0, 0, 0, 0, 0, 0, 0, 0, 0, 0\n0, 0, 0, 0, 6, 0, 108, 0]", fillcolor="#e6445a"] ;
520 -> 530 ;
531 [label="X[4] <= 209.0\ngini = 0.39\nsamples = 15\nvalue = [0, 0, 0, 0, 0, 0, 0, 0, 0, 0, 0, 0, 0, 0\n0, 0, 0, 0, 6, 0, 17, 0]", fillcolor="#ee7f8e"] ;
530 -> 531 ;
532 [label="X[0] <= 15.0\ngini = 0.47\nsamples = 11\nvalue = [0, 0, 0, 0, 0, 0, 0, 0, 0, 0, 0, 0, 0, 0\n0, 0, 0, 0, 6, 0, 10, 0]", fillcolor="#f5b0b9"] ;
531 -> 532 ;
533 [label="gini = 0.0\nsamples = 3\nvalue = [0, 0, 0, 0, 0, 0, 0, 0, 0, 0, 0, 0, 0, 0\n0, 0, 0, 0, 6, 0, 0, 0]", fillcolor="#e539ae"] ;
532 -> 533 ;
534 [label="gini = 0.0\nsamples = 8\nvalue = [0, 0, 0, 0, 0, 0, 0, 0, 0, 0, 0, 0, 0, 0\n0, 0, 0, 0, 0, 0, 10, 0]", fillcolor="#e53950"] ;
532 -> 534 ;
535 [label="gini = 0.0\nsamples = 4\nvalue = [0, 0, 0, 0, 0, 0, 0, 0, 0, 0, 0, 0, 0, 0\n0, 0, 0, 0, 0, 0, 7, 0]", fillcolor="#e53950"] ;
531 -> 535 ;
536 [label="gini = 0.0\nsamples = 62\nvalue = [0, 0, 0, 0, 0, 0, 0, 0, 0, 0, 0, 0, 0, 0\n0, 0, 0, 0, 0, 0, 91, 0]", fillcolor="#e53950"] ;
530 -> 536 ;
537 [label="X[2] <= 133.5\ngini = 0.45\nsamples = 24\nvalue = [0, 0, 0, 0, 0, 0, 0, 0, 0, 14, 0, 0, 0, 0\n0, 0, 26, 0, 0, 0, 0, 0]", fillcolor="#e1a4f3"] ;
519 -> 537 ;
538 [label="gini = 0.0\nsamples = 8\nvalue = [0, 0, 0, 0, 0, 0, 0, 0, 0, 14, 0, 0, 0, 0\n0, 0, 0, 0, 0, 0, 0, 0]", fillcolor="#39e5ce"] ;
537 -> 538 ;
539 [label="gini = 0.0\nsamples = 16\nvalue = [0, 0, 0, 0, 0, 0, 0, 0, 0, 0, 0, 0, 0, 0\n0, 0, 26, 0, 0, 0, 0, 0]", fillcolor="#bd39e5"] ;
537 -> 539 ;
540 [label="X[1] <= 137.5\ngini = 0.36\nsamples = 72\nvalue = [0, 0, 5, 0, 0, 1, 0, 0, 0, 0, 0, 0, 0, 0\n0, 0, 0, 1, 6, 12, 0, 94]", fillcolor="#eb7967"] ;
518 -> 540 ;
541 [label="X[0] <= 15.0\ngini = 0.64\nsamples = 34\nvalue = [0, 0, 5, 0, 0, 1, 0, 0, 0, 0, 0, 0, 0, 0\n0, 0, 0, 1, 6, 11, 0, 29]", fillcolor="#f4b4aa"] ;
540 -> 541 ;
542 [label="X[3] <= 292.0\ngini = 0.56\nsamples = 14\nvalue = [0, 0, 0, 0, 0, 1, 0, 0, 0, 0, 0, 0, 0, 0\n0, 0, 0, 1, 6, 11, 0, 0]", fillcolor="#f5b3cf"] ;
541 -> 542 ;
543 [label="X[2] <= 21.5\ngini = 0.41\nsamples = 6\nvalue = [0, 0, 0, 0, 0, 1, 0, 0, 0, 0, 0, 0, 0, 0\n0, 0, 0, 1, 6, 0, 0, 0]", fillcolor="#ec72c5"] ;
542 -> 543 ;
544 [label="gini = 0.0\nsamples = 1\nvalue = [0, 0, 0, 0, 0, 0, 0, 0, 0, 0, 0, 0, 0, 0\n0, 0, 0, 0, 3, 0, 0, 0]", fillcolor="#e539ae"] ;
543 -> 544 ;
545 [label="X[2] <= 27.5\ngini = 0.56\nsamples = 5\nvalue = [0, 0, 0, 0, 0, 1, 0, 0, 0, 0, 0, 0, 0, 0\n0, 0, 0, 1, 3, 0, 0, 0]", fillcolor="#f29cd6"] ;
543 -> 545 ;
546 [label="gini = 0.0\nsamples = 1\nvalue = [0, 0, 0, 0, 0, 1, 0, 0, 0, 0, 0, 0, 0, 0\n0, 0, 0, 0, 0, 0, 0, 0]", fillcolor="#61e539"] ;
545 -> 546 ;
547 [label="X[4] <= 81.0\ngini = 0.38\nsamples = 4\nvalue = [0, 0, 0, 0, 0, 0, 0, 0, 0, 0, 0, 0, 0, 0\n0, 0, 0, 1, 3, 0, 0, 0]", fillcolor="#ee7bc9"] ;
545 -> 547 ;
548 [label="gini = 0.0\nsamples = 1\nvalue = [0, 0, 0, 0, 0, 0, 0, 0, 0, 0, 0, 0, 0, 0\n0, 0, 0, 1, 0, 0, 0, 0]", fillcolor="#e539dc"] ;
547 -> 548 ;
549 [label="gini = 0.0\nsamples = 3\nvalue = [0, 0, 0, 0, 0, 0, 0, 0, 0, 0, 0, 0, 0, 0\n0, 0, 0, 0, 3, 0, 0, 0]", fillcolor="#e539ae"] ;
547 -> 549 ;
550 [label="gini = 0.0\nsamples = 8\nvalue = [0, 0, 0, 0, 0, 0, 0, 0, 0, 0, 0, 0, 0, 0\n0, 0, 0, 0, 0, 11, 0, 0]", fillcolor="#e53981"] ;
542 -> 550 ;
551 [label="X[1] <= 118.0\ngini = 0.25\nsamples = 20\nvalue = [0, 0, 5, 0, 0, 0, 0, 0, 0, 0, 0, 0, 0, 0\n0, 0, 0, 0, 0, 0, 0, 29]", fillcolor="#e96e5b"] ;
541 -> 551 ;
552 [label="gini = 0.0\nsamples = 15\nvalue = [0, 0, 0, 0, 0, 0, 0, 0, 0, 0, 0, 0, 0, 0\n0, 0, 0, 0, 0, 0, 0, 25]", fillcolor="#e55039"] ;
551 -> 552 ;
553 [label="X[4] <= 192.5\ngini = 0.49\nsamples = 5\nvalue = [0, 0, 5, 0, 0, 0, 0, 0, 0, 0, 0, 0, 0, 0\n0, 0, 0, 0, 0, 0, 0, 4]", fillcolor="#faf8d7"] ;
551 -> 553 ;
554 [label="gini = 0.0\nsamples = 4\nvalue = [0, 0, 5, 0, 0, 0, 0, 0, 0, 0, 0, 0, 0, 0\n0, 0, 0, 0, 0, 0, 0, 0]", fillcolor="#e5dc39"] ;
553 -> 554 ;
555 [label="gini = 0.0\nsamples = 1\nvalue = [0, 0, 0, 0, 0, 0, 0, 0, 0, 0, 0, 0, 0, 0\n0, 0, 0, 0, 0, 0, 0, 4]", fillcolor="#e55039"] ;
553 -> 555 ;
556 [label="X[2] <= 321.5\ngini = 0.03\nsamples = 38\nvalue = [0, 0, 0, 0, 0, 0, 0, 0, 0, 0, 0, 0, 0, 0\n0, 0, 0, 0, 0, 1, 0, 65]", fillcolor="#e5533c"] ;
540 -> 556 ;
557 [label="gini = 0.0\nsamples = 37\nvalue = [0, 0, 0, 0, 0, 0, 0, 0, 0, 0, 0, 0, 0, 0\n0, 0, 0, 0, 0, 0, 0, 65]", fillcolor="#e55039"] ;
556 -> 557 ;
558 [label="gini = 0.0\nsamples = 1\nvalue = [0, 0, 0, 0, 0, 0, 0, 0, 0, 0, 0, 0, 0, 0\n0, 0, 0, 0, 0, 1, 0, 0]", fillcolor="#e53981"] ;
556 -> 558 ;
559 [label="X[1] <= 76.0\ngini = 0.14\nsamples = 319\nvalue = [0, 0, 0, 0, 0, 482, 0, 0, 0, 3, 0, 0, 0, 0\n0, 0, 0, 0, 10, 8, 16, 0]", fillcolor="#6de748"] ;
517 -> 559 ;
560 [label="X[1] <= 73.0\ngini = 0.43\nsamples = 7\nvalue = [0, 0, 0, 0, 0, 4, 0, 0, 0, 0, 0, 0, 0, 0\n0, 0, 0, 0, 0, 0, 9, 0]", fillcolor="#f1919e"] ;
559 -> 560 ;
561 [label="gini = 0.0\nsamples = 2\nvalue = [0, 0, 0, 0, 0, 4, 0, 0, 0, 0, 0, 0, 0, 0\n0, 0, 0, 0, 0, 0, 0, 0]", fillcolor="#61e539"] ;
560 -> 561 ;
562 [label="gini = 0.0\nsamples = 5\nvalue = [0, 0, 0, 0, 0, 0, 0, 0, 0, 0, 0, 0, 0, 0\n0, 0, 0, 0, 0, 0, 9, 0]", fillcolor="#e53950"] ;
560 -> 562 ;
563 [label="X[3] <= 6.5\ngini = 0.11\nsamples = 312\nvalue = [0, 0, 0, 0, 0, 478, 0, 0, 0, 3, 0, 0, 0, 0\n0, 0, 0, 0, 10, 8, 7, 0]", fillcolor="#6ae644"] ;
559 -> 563 ;
564 [label="X[0] <= 25.5\ngini = 0.02\nsamples = 283\nvalue = [0, 0, 0, 0, 0, 458, 0, 0, 0, 0, 0, 0, 0, 0\n0, 0, 0, 0, 0, 5, 0, 0]", fillcolor="#63e53b"] ;
563 -> 564 ;
565 [label="X[1] <= 131.5\ngini = 0.15\nsamples = 16\nvalue = [0, 0, 0, 0, 0, 23, 0, 0, 0, 0, 0, 0, 0, 0\n0, 0, 0, 0, 0, 2, 0, 0]", fillcolor="#6fe74a"] ;
564 -> 565 ;
566 [label="X[1] <= 107.5\ngini = 0.44\nsamples = 2\nvalue = [0, 0, 0, 0, 0, 1, 0, 0, 0, 0, 0, 0, 0, 0\n0, 0, 0, 0, 0, 2, 0, 0]", fillcolor="#f29cc0"] ;
565 -> 566 ;
567 [label="gini = 0.0\nsamples = 1\nvalue = [0, 0, 0, 0, 0, 1, 0, 0, 0, 0, 0, 0, 0, 0\n0, 0, 0, 0, 0, 0, 0, 0]", fillcolor="#61e539"] ;
566 -> 567 ;
568 [label="gini = 0.0\nsamples = 1\nvalue = [0, 0, 0, 0, 0, 0, 0, 0, 0, 0, 0, 0, 0, 0\n0, 0, 0, 0, 0, 2, 0, 0]", fillcolor="#e53981"] ;
566 -> 568 ;
569 [label="gini = 0.0\nsamples = 14\nvalue = [0, 0, 0, 0, 0, 22, 0, 0, 0, 0, 0, 0, 0, 0\n0, 0, 0, 0, 0, 0, 0, 0]", fillcolor="#61e539"] ;
565 -> 569 ;
570 [label="X[2] <= 246.0\ngini = 0.01\nsamples = 267\nvalue = [0, 0, 0, 0, 0, 435, 0, 0, 0, 0, 0, 0, 0, 0\n0, 0, 0, 0, 0, 3, 0, 0]", fillcolor="#62e53a"] ;
564 -> 570 ;
571 [label="X[2] <= 244.5\ngini = 0.16\nsamples = 24\nvalue = [0, 0, 0, 0, 0, 32, 0, 0, 0, 0, 0, 0, 0, 0\n0, 0, 0, 0, 0, 3, 0, 0]", fillcolor="#70e74c"] ;
570 -> 571 ;
572 [label="gini = 0.0\nsamples = 21\nvalue = [0, 0, 0, 0, 0, 30, 0, 0, 0, 0, 0, 0, 0, 0\n0, 0, 0, 0, 0, 0, 0, 0]", fillcolor="#61e539"] ;
571 -> 572 ;
573 [label="X[4] <= 513.0\ngini = 0.48\nsamples = 3\nvalue = [0, 0, 0, 0, 0, 2, 0, 0, 0, 0, 0, 0, 0, 0\n0, 0, 0, 0, 0, 3, 0, 0]", fillcolor="#f6bdd5"] ;
571 -> 573 ;
574 [label="gini = 0.0\nsamples = 1\nvalue = [0, 0, 0, 0, 0, 2, 0, 0, 0, 0, 0, 0, 0, 0\n0, 0, 0, 0, 0, 0, 0, 0]", fillcolor="#61e539"] ;
573 -> 574 ;
575 [label="gini = 0.0\nsamples = 2\nvalue = [0, 0, 0, 0, 0, 0, 0, 0, 0, 0, 0, 0, 0, 0\n0, 0, 0, 0, 0, 3, 0, 0]", fillcolor="#e53981"] ;
573 -> 575 ;
576 [label="gini = 0.0\nsamples = 243\nvalue = [0, 0, 0, 0, 0, 403, 0, 0, 0, 0, 0, 0, 0, 0\n0, 0, 0, 0, 0, 0, 0, 0]", fillcolor="#61e539"] ;
570 -> 576 ;
577 [label="X[1] <= 131.5\ngini = 0.69\nsamples = 29\nvalue = [0, 0, 0, 0, 0, 20, 0, 0, 0, 3, 0, 0, 0, 0\n0, 0, 0, 0, 10, 3, 7, 0]", fillcolor="#cff7c3"] ;
563 -> 577 ;
578 [label="X[4] <= 380.0\ngini = 0.62\nsamples = 12\nvalue = [0, 0, 0, 0, 0, 0, 0, 0, 0, 3, 0, 0, 0, 0\n0, 0, 0, 0, 10, 3, 2, 0]", fillcolor="#f3a3d9"] ;
577 -> 578 ;
579 [label="gini = 0.0\nsamples = 4\nvalue = [0, 0, 0, 0, 0, 0, 0, 0, 0, 0, 0, 0, 0, 0\n0, 0, 0, 0, 7, 0, 0, 0]", fillcolor="#e539ae"] ;
578 -> 579 ;
580 [label="X[2] <= 17.0\ngini = 0.74\nsamples = 8\nvalue = [0, 0, 0, 0, 0, 0, 0, 0, 0, 3, 0, 0, 0, 0\n0, 0, 0, 0, 3, 3, 2, 0]", fillcolor="#ffffff"] ;
578 -> 580 ;
581 [label="gini = 0.0\nsamples = 2\nvalue = [0, 0, 0, 0, 0, 0, 0, 0, 0, 0, 0, 0, 0, 0\n0, 0, 0, 0, 3, 0, 0, 0]", fillcolor="#e539ae"] ;
580 -> 581 ;
582 [label="X[3] <= 29.5\ngini = 0.66\nsamples = 6\nvalue = [0, 0, 0, 0, 0, 0, 0, 0, 0, 3, 0, 0, 0, 0\n0, 0, 0, 0, 0, 3, 2, 0]", fillcolor="#ffffff"] ;
580 -> 582 ;
583 [label="X[1] <= 116.0\ngini = 0.48\nsamples = 3\nvalue = [0, 0, 0, 0, 0, 0, 0, 0, 0, 3, 0, 0, 0, 0\n0, 0, 0, 0, 0, 0, 2, 0]", fillcolor="#bdf6ef"] ;
582 -> 583 ;
584 [label="gini = 0.0\nsamples = 1\nvalue = [0, 0, 0, 0, 0, 0, 0, 0, 0, 0, 0, 0, 0, 0\n0, 0, 0, 0, 0, 0, 2, 0]", fillcolor="#e53950"] ;
583 -> 584 ;
585 [label="gini = 0.0\nsamples = 2\nvalue = [0, 0, 0, 0, 0, 0, 0, 0, 0, 3, 0, 0, 0, 0\n0, 0, 0, 0, 0, 0, 0, 0]", fillcolor="#39e5ce"] ;
583 -> 585 ;
586 [label="gini = 0.0\nsamples = 3\nvalue = [0, 0, 0, 0, 0, 0, 0, 0, 0, 0, 0, 0, 0, 0\n0, 0, 0, 0, 0, 3, 0, 0]", fillcolor="#e53981"] ;
582 -> 586 ;
587 [label="X[0] <= 25.5\ngini = 0.32\nsamples = 17\nvalue = [0, 0, 0, 0, 0, 20, 0, 0, 0, 0, 0, 0, 0, 0\n0, 0, 0, 0, 0, 0, 5, 0]", fillcolor="#88ec6a"] ;
577 -> 587 ;
588 [label="gini = 0.0\nsamples = 13\nvalue = [0, 0, 0, 0, 0, 20, 0, 0, 0, 0, 0, 0, 0, 0\n0, 0, 0, 0, 0, 0, 0, 0]", fillcolor="#61e539"] ;
587 -> 588 ;
589 [label="gini = 0.0\nsamples = 4\nvalue = [0, 0, 0, 0, 0, 0, 0, 0, 0, 0, 0, 0, 0, 0\n0, 0, 0, 0, 0, 0, 5, 0]", fillcolor="#e53950"] ;
587 -> 589 ;
590 [label="X[0] <= 54.0\ngini = 0.53\nsamples = 1076\nvalue = [0, 0, 0, 0, 0, 55, 0, 0, 0, 6, 0, 0, 0, 0\n0, 0, 0, 0, 3, 948, 726, 0]", fillcolor="#f9d4e3"] ;
324 -> 590 ;
591 [label="X[3] <= 6.5\ngini = 0.44\nsamples = 503\nvalue = [0, 0, 0, 0, 0, 55, 0, 0, 0, 6, 0, 0, 0, 0\n0, 0, 0, 0, 0, 583, 170, 0]", fillcolor="#ee80ae"] ;
590 -> 591 ;
592 [label="X[1] <= 163.5\ngini = 0.1\nsamples = 33\nvalue = [0, 0, 0, 0, 0, 55, 0, 0, 0, 0, 0, 0, 0, 0\n0, 0, 0, 0, 0, 3, 0, 0]", fillcolor="#6ae644"] ;
591 -> 592 ;
593 [label="gini = 0.0\nsamples = 25\nvalue = [0, 0, 0, 0, 0, 46, 0, 0, 0, 0, 0, 0, 0, 0\n0, 0, 0, 0, 0, 0, 0, 0]", fillcolor="#61e539"] ;
592 -> 593 ;
594 [label="X[2] <= 354.5\ngini = 0.38\nsamples = 8\nvalue = [0, 0, 0, 0, 0, 9, 0, 0, 0, 0, 0, 0, 0, 0\n0, 0, 0, 0, 0, 3, 0, 0]", fillcolor="#96ee7b"] ;
592 -> 594 ;
595 [label="gini = 0.0\nsamples = 2\nvalue = [0, 0, 0, 0, 0, 0, 0, 0, 0, 0, 0, 0, 0, 0\n0, 0, 0, 0, 0, 3, 0, 0]", fillcolor="#e53981"] ;
594 -> 595 ;
596 [label="gini = 0.0\nsamples = 6\nvalue = [0, 0, 0, 0, 0, 9, 0, 0, 0, 0, 0, 0, 0, 0\n0, 0, 0, 0, 0, 0, 0, 0]", fillcolor="#61e539"] ;
594 -> 596 ;
597 [label="X[0] <= 34.5\ngini = 0.36\nsamples = 470\nvalue = [0, 0, 0, 0, 0, 0, 0, 0, 0, 6, 0, 0, 0, 0\n0, 0, 0, 0, 0, 580, 170, 0]", fillcolor="#ed74a7"] ;
591 -> 597 ;
598 [label="X[0] <= 24.5\ngini = 0.5\nsamples = 228\nvalue = [0, 0, 0, 0, 0, 0, 0, 0, 0, 6, 0, 0, 0, 0\n0, 0, 0, 0, 0, 211, 141, 0]", fillcolor="#f7bfd6"] ;
597 -> 598 ;
599 [label="X[3] <= 29.0\ngini = 0.47\nsamples = 209\nvalue = [0, 0, 0, 0, 0, 0, 0, 0, 0, 6, 0, 0, 0, 0\n0, 0, 0, 0, 0, 211, 110, 0]", fillcolor="#f3a3c4"] ;
598 -> 599 ;
600 [label="X[4] <= 778.0\ngini = 0.38\nsamples = 3\nvalue = [0, 0, 0, 0, 0, 0, 0, 0, 0, 6, 0, 0, 0, 0\n0, 0, 0, 0, 0, 2, 0, 0]", fillcolor="#7beede"] ;
599 -> 600 ;
601 [label="gini = 0.0\nsamples = 1\nvalue = [0, 0, 0, 0, 0, 0, 0, 0, 0, 3, 0, 0, 0, 0\n0, 0, 0, 0, 0, 0, 0, 0]", fillcolor="#39e5ce"] ;
600 -> 601 ;
602 [label="X[3] <= 10.5\ngini = 0.48\nsamples = 2\nvalue = [0, 0, 0, 0, 0, 0, 0, 0, 0, 3, 0, 0, 0, 0\n0, 0, 0, 0, 0, 2, 0, 0]", fillcolor="#bdf6ef"] ;
600 -> 602 ;
603 [label="gini = 0.0\nsamples = 1\nvalue = [0, 0, 0, 0, 0, 0, 0, 0, 0, 0, 0, 0, 0, 0\n0, 0, 0, 0, 0, 2, 0, 0]", fillcolor="#e53981"] ;
602 -> 603 ;
604 [label="gini = 0.0\nsamples = 1\nvalue = [0, 0, 0, 0, 0, 0, 0, 0, 0, 3, 0, 0, 0, 0\n0, 0, 0, 0, 0, 0, 0, 0]", fillcolor="#39e5ce"] ;
602 -> 604 ;
605 [label="X[1] <= 79.5\ngini = 0.45\nsamples = 206\nvalue = [0, 0, 0, 0, 0, 0, 0, 0, 0, 0, 0, 0, 0, 0\n0, 0, 0, 0, 0, 209, 110, 0]", fillcolor="#f3a1c3"] ;
599 -> 605 ;
606 [label="X[4] <= 806.0\ngini = 0.46\nsamples = 202\nvalue = [0, 0, 0, 0, 0, 0, 0, 0, 0, 0, 0, 0, 0, 0\n0, 0, 0, 0, 0, 202, 110, 0]", fillcolor="#f3a5c6"] ;
605 -> 606 ;
607 [label="gini = 0.43\nsamples = 17\nvalue = [0, 0, 0, 0, 0, 0, 0, 0, 0, 0, 0, 0, 0, 0\n0, 0, 0, 0, 0, 18, 8, 0]", fillcolor="#f191b9"] ;
606 -> 607 ;
608 [label="gini = 0.46\nsamples = 185\nvalue = [0, 0, 0, 0, 0, 0, 0, 0, 0, 0, 0, 0, 0, 0\n0, 0, 0, 0, 0, 184, 102, 0]", fillcolor="#f3a7c7"] ;
606 -> 608 ;
609 [label="gini = 0.0\nsamples = 4\nvalue = [0, 0, 0, 0, 0, 0, 0, 0, 0, 0, 0, 0, 0, 0\n0, 0, 0, 0, 0, 7, 0, 0]", fillcolor="#e53981"] ;
605 -> 609 ;
610 [label="gini = 0.0\nsamples = 19\nvalue = [0, 0, 0, 0, 0, 0, 0, 0, 0, 0, 0, 0, 0, 0\n0, 0, 0, 0, 0, 0, 31, 0]", fillcolor="#e53950"] ;
598 -> 610 ;
611 [label="X[2] <= 450.5\ngini = 0.14\nsamples = 242\nvalue = [0, 0, 0, 0, 0, 0, 0, 0, 0, 0, 0, 0, 0, 0\n0, 0, 0, 0, 0, 369, 29, 0]", fillcolor="#e7498b"] ;
597 -> 611 ;
612 [label="X[3] <= 79.0\ngini = 0.12\nsamples = 236\nvalue = [0, 0, 0, 0, 0, 0, 0, 0, 0, 0, 0, 0, 0, 0\n0, 0, 0, 0, 0, 366, 24, 0]", fillcolor="#e74689"] ;
611 -> 612 ;
613 [label="X[3] <= 66.0\ngini = 0.09\nsamples = 213\nvalue = [0, 0, 0, 0, 0, 0, 0, 0, 0, 0, 0, 0, 0, 0\n0, 0, 0, 0, 0, 333, 17, 0]", fillcolor="#e64387"] ;
612 -> 613 ;
614 [label="X[2] <= 445.5\ngini = 0.07\nsamples = 153\nvalue = [0, 0, 0, 0, 0, 0, 0, 0, 0, 0, 0, 0, 0, 0\n0, 0, 0, 0, 0, 248, 9, 0]", fillcolor="#e64086"] ;
613 -> 614 ;
615 [label="X[3] <= 32.0\ngini = 0.02\nsamples = 48\nvalue = [0, 0, 0, 0, 0, 0, 0, 0, 0, 0, 0, 0, 0, 0\n0, 0, 0, 0, 0, 84, 1, 0]", fillcolor="#e53b82"] ;
614 -> 615 ;
616 [label="X[1] <= 69.5\ngini = 0.04\nsamples = 26\nvalue = [0, 0, 0, 0, 0, 0, 0, 0, 0, 0, 0, 0, 0, 0\n0, 0, 0, 0, 0, 43, 1, 0]", fillcolor="#e63e84"] ;
615 -> 616 ;
617 [label="gini = 0.0\nsamples = 3\nvalue = [0, 0, 0, 0, 0, 0, 0, 0, 0, 0, 0, 0, 0, 0\n0, 0, 0, 0, 0, 5, 0, 0]", fillcolor="#e53981"] ;
616 -> 617 ;
618 [label="gini = 0.05\nsamples = 23\nvalue = [0, 0, 0, 0, 0, 0, 0, 0, 0, 0, 0, 0, 0, 0\n0, 0, 0, 0, 0, 38, 1, 0]", fillcolor="#e63e84"] ;
616 -> 618 ;
619 [label="gini = 0.0\nsamples = 22\nvalue = [0, 0, 0, 0, 0, 0, 0, 0, 0, 0, 0, 0, 0, 0\n0, 0, 0, 0, 0, 41, 0, 0]", fillcolor="#e53981"] ;
615 -> 619 ;
620 [label="X[2] <= 448.5\ngini = 0.09\nsamples = 105\nvalue = [0, 0, 0, 0, 0, 0, 0, 0, 0, 0, 0, 0, 0, 0\n0, 0, 0, 0, 0, 164, 8, 0]", fillcolor="#e64387"] ;
614 -> 620 ;
621 [label="X[2] <= 447.5\ngini = 0.1\nsamples = 77\nvalue = [0, 0, 0, 0, 0, 0, 0, 0, 0, 0, 0, 0, 0, 0\n0, 0, 0, 0, 0, 124, 7, 0]", fillcolor="#e64488"] ;
620 -> 621 ;
622 [label="X[3] <= 32.0\ngini = 0.08\nsamples = 54\nvalue = [0, 0, 0, 0, 0, 0, 0, 0, 0, 0, 0, 0, 0, 0\n0, 0, 0, 0, 0, 88, 4, 0]", fillcolor="#e64287"] ;
621 -> 622 ;
623 [label="X[2] <= 446.5\ngini = 0.13\nsamples = 23\nvalue = [0, 0, 0, 0, 0, 0, 0, 0, 0, 0, 0, 0, 0, 0\n0, 0, 0, 0, 0, 40, 3, 0]", fillcolor="#e7488a"] ;
622 -> 623 ;
624 [label="gini = 0.17\nsamples = 12\nvalue = [0, 0, 0, 0, 0, 0, 0, 0, 0, 0, 0, 0, 0, 0\n0, 0, 0, 0, 0, 19, 2, 0]", fillcolor="#e84e8e"] ;
623 -> 624 ;
625 [label="gini = 0.09\nsamples = 11\nvalue = [0, 0, 0, 0, 0, 0, 0, 0, 0, 0, 0, 0, 0, 0\n0, 0, 0, 0, 0, 21, 1, 0]", fillcolor="#e64287"] ;
623 -> 625 ;
626 [label="X[2] <= 446.5\ngini = 0.04\nsamples = 31\nvalue = [0, 0, 0, 0, 0, 0, 0, 0, 0, 0, 0, 0, 0, 0\n0, 0, 0, 0, 0, 48, 1, 0]", fillcolor="#e63d84"] ;
622 -> 626 ;
